<?xml version="1.0"?>
<opencv_storage>
<opencv_ml_svm>
  <format>3</format>
  <svmType>C_SVC</svmType>
  <kernel>
    <type>INTER</type>
    <gamma>9.0000000000000002e-01</gamma></kernel>
  <C>1.</C>
  <term_criteria><epsilon>1.1920928955078125e-07</epsilon>
    <iterations>100000</iterations></term_criteria>
  <var_count>324</var_count>
  <class_count>2</class_count>
  <class_labels type_id="opencv-matrix">
    <rows>2</rows>
    <cols>1</cols>
    <dt>i</dt>
    <data>
      -1 1</data></class_labels>
  <sv_total>57</sv_total>
  <support_vectors>
    <_>
      5.79716498e-03 7.46748447e-02 1.24003276e-01 1.48479911e-02 0. 0.
      0. 0. 5.24346195e-02 0. 1.98921546e-01 4.80283290e-01
      7.82138482e-02 1.64639279e-02 0. 0. 1.58030223e-02 3.58741246e-02
      2.42624432e-03 1.77210644e-01 5.35476863e-01 3.24445516e-02
      2.17641026e-01 3.98493884e-03 0. 0. 0. 3.53131164e-03
      1.66630015e-01 4.89903212e-01 2.15048552e-01 6.73462152e-02
      5.32672554e-02 1.23009896e-02 7.84101263e-02 5.99479713e-02 0.
      1.02779485e-01 2.48154476e-01 4.04118076e-02 8.50664079e-03 0. 0.
      8.16516206e-03 1.85355693e-02 0. 1.57000236e-02 8.62393826e-02
      8.01859051e-03 2.75073275e-02 2.57905237e-02 4.79792394e-02
      6.39265120e-01 2.87162274e-01 1.82457059e-03 8.60949829e-02
      2.53124923e-01 1.11112051e-01 3.47966775e-02 2.75223143e-02
      6.35571871e-03 4.05132212e-02 3.09741292e-02 2.42407667e-03
      3.03700031e-03 4.56055403e-02 4.55047227e-02 1.34740815e-01
      1.70031041e-01 1.12005718e-01 3.46003205e-01 3.88854980e-01 0.
      1.36182625e-02 7.48043805e-02 6.95535680e-03 2.38599647e-02
      2.23708022e-02 4.16173823e-02 5.54501057e-01 2.49085680e-01
      1.83622615e-04 1.37880570e-05 6.55848533e-03 4.99459123e-03
      9.93280206e-03 2.82567237e-02 8.99236724e-02 1.66723296e-01
      5.43673374e-02 2.10265373e-03 2.63430621e-03 3.95584255e-02
      3.94709744e-02 1.16874710e-01 1.47485599e-01 9.71542001e-02
      3.00124556e-01 3.37294340e-01 3.03769601e-03 4.42496827e-03
      1.12971749e-04 9.74714756e-03 0. 1.53002022e-02 8.82705301e-02
      5.14745414e-01 2.38977358e-01 2.62319343e-04 1.96973251e-05
      9.36931279e-03 7.13516632e-03 1.41897900e-02 4.03669551e-02
      1.28463045e-01 2.38177344e-01 7.76680261e-02 1.55340508e-03
      1.13459267e-01 3.42839539e-01 2.07726527e-02 1.39344856e-01
      2.55136075e-03 0. 0. 0. 4.33958787e-03 6.32141531e-03
      1.61389034e-04 1.39245670e-02 0. 2.18575429e-02 1.26101404e-01
      7.35354364e-01 3.41397971e-01 2.12969817e-02 7.47868642e-02
      1.70229211e-01 3.92744802e-02 1.50966436e-01 3.37668061e-02
      8.65505189e-02 1.22930475e-01 1.07078552e-01 2.16563279e-03
      1.58175826e-01 4.77959424e-01 2.89595686e-02 1.94263443e-01
      3.55690252e-03 0. 0. 0. 3.15200095e-03 1.48731694e-01
      4.37280983e-01 1.91949442e-01 6.01123199e-02 4.75456342e-02
      1.09796971e-02 6.99878186e-02 5.35087511e-02 2.96905451e-02
      1.04261853e-01 2.37319916e-01 5.47533333e-02 2.10465297e-01
      4.70749773e-02 1.20661803e-01 1.71379820e-01 1.49280339e-01
      2.17116717e-02 1.14734896e-01 1.00206688e-01 1.11411564e-01
      7.86410645e-02 2.22540557e-01 2.20196843e-01 1.12694204e-01
      3.27432930e-01 2.11308710e-03 9.97090489e-02 2.93151170e-01
      1.28682017e-01 4.02990244e-02 3.18743736e-02 7.36073824e-03
      4.69195135e-02 3.58720198e-02 2.80739204e-03 3.51723656e-03
      5.28170727e-02 5.27003109e-02 1.56047165e-01 1.96917787e-01
      1.29717007e-01 4.00716156e-01 4.50343996e-01 1.45554049e-02
      7.69177526e-02 6.71781003e-02 7.46898055e-02 5.27206101e-02
      1.49190173e-01 1.47618949e-01 7.55496770e-02 2.19509527e-01
      1.78050101e-02 1.89108849e-02 2.88775004e-02 6.70468733e-02
      1.48452759e-01 4.74306010e-02 1.73255175e-01 4.28248256e-01
      2.67963141e-01 1.80042477e-03 2.25565908e-03 3.38724218e-02
      3.37975398e-02 1.00075506e-01 1.26286477e-01 8.31895620e-02
      2.56985605e-01 2.88812697e-01 2.60106707e-03 3.78893712e-03
      9.67335436e-05 8.34612269e-03 0. 1.31009994e-02 7.55828023e-02
      4.40757513e-01 2.04627499e-01 1.14186341e-02 1.21278483e-02
      1.85195971e-02 4.29982170e-02 9.52050909e-02 3.04179918e-02
      1.11111268e-01 2.74642348e-01 1.71848983e-01 1.90681743e-03
      9.98233538e-03 3.27036763e-03 0. 8.71260166e-02 6.77354122e-03
      4.77849357e-02 5.70303202e-01 3.28944206e-01 2.52344226e-03
      3.67586198e-03 9.38466765e-05 8.09704512e-03 0. 1.27100199e-02
      7.33271465e-02 4.27603781e-01 1.98520690e-01 1.23840561e-02
      4.34880741e-02 9.89871770e-02 2.28378549e-02 8.77859965e-02
      1.96351781e-02 5.03285676e-02 7.14832693e-02 6.22654818e-02
      1.84991129e-03 9.68442764e-03 3.17276851e-03 0. 8.45258757e-02
      6.57139532e-03 4.63588685e-02 5.53283393e-01 3.19127351e-01
      2.78298015e-04 2.59697600e-03 3.03269597e-03 6.85365684e-03
      7.39601403e-02 0. 8.06497261e-02 5.28505504e-01 1.77143455e-01
      1.77944470e-02 6.24873005e-02 1.42233044e-01 3.28153372e-02
      1.26138255e-01 2.82134656e-02 7.23162889e-02 1.02713138e-01
      8.94682482e-02 1.30124651e-02 6.87641203e-02 6.00569174e-02
      6.67723417e-02 4.71319854e-02 1.33375332e-01 1.31970674e-01
      6.75410703e-02 1.96240515e-01 3.99881857e-04 3.73155205e-03
      4.35763085e-03 9.84790642e-03 1.06272109e-01 0. 1.15884274e-01
      7.59400904e-01 2.54534513e-01 1.45462658e-02 2.48194952e-02
      2.42258087e-02 2.81484853e-02 3.29826772e-02 1.06700681e-01
      1.08343937e-01 3.11931878e-01 2.24651843e-01</_>
    <_>
      1.57744270e-02 6.60951361e-02 1.76489800e-01 1.70129403e-01
      2.30427369e-01 5.84157966e-02 0. 0. 0. 4.38425574e-04
      3.95314433e-02 4.21389133e-01 2.50692159e-01 6.07166961e-02
      4.77858214e-03 0. 3.15651717e-03 4.50268090e-02 6.66290801e-03
      4.42744158e-02 4.22475576e-01 2.14442074e-01 2.09455058e-01 0.
      2.04300639e-04 2.95785874e-01 5.36853597e-02 2.54397709e-02
      4.40524891e-02 3.36347193e-01 3.02623183e-01 3.37960571e-02
      4.40040044e-02 7.53507689e-02 1.43782571e-01 1.83329269e-01
      4.11472865e-04 3.71012017e-02 3.95483762e-01 2.35280573e-01
      5.69840670e-02 4.48481319e-03 0. 2.96246679e-03 4.22587357e-02
      2.56010052e-03 7.68088037e-03 3.82991314e-01 3.56797606e-01
      1.41396016e-01 5.93913309e-02 8.55026674e-03 0. 0. 2.38758326e-02
      4.13443148e-02 3.15669864e-01 2.84019083e-01 3.17184068e-02
      4.12988067e-02 7.07184896e-02 1.34943381e-01 1.72058895e-01
      2.78143380e-02 5.75357936e-02 9.33706313e-02 2.16856360e-01
      2.52406299e-01 1.14345416e-01 2.26201817e-01 1.32659063e-01
      2.01625198e-01 1.63644040e-03 4.90969094e-03 2.44811639e-01
      2.28068382e-01 9.03816596e-02 3.79634984e-02 5.46541065e-03 0. 0.
      0. 5.07597625e-03 9.80345346e-03 2.38860529e-02 1.42577097e-01
      1.15035258e-01 6.50531709e-01 1.83652863e-01 1.12728933e-02
      1.77791864e-02 3.67774218e-02 5.96833862e-02 1.38616621e-01
      1.61340490e-01 7.30906650e-02 1.44590318e-01 8.47969204e-02
      1.28880724e-01 4.06357879e-03 1.45408313e-03 1.56718232e-02
      4.87876609e-02 1.92886353e-01 2.15617061e-01 3.94746184e-01
      1.84282139e-01 1.02148600e-01 0. 3.70049966e-03 7.14693591e-03
      1.74134634e-02 1.03941880e-01 8.38632658e-02 4.74252075e-01
      1.33887023e-01 8.21818970e-03 2.91402359e-03 1.93634219e-02
      1.84769750e-01 9.37862694e-02 9.16051939e-02 0. 8.93509132e-05
      1.29361987e-01 2.34792996e-02 2.96243932e-03 1.06005894e-03
      1.14251077e-02 3.55672911e-02 1.40618443e-01 1.57189637e-01
      2.87778765e-01 1.34345785e-01 7.44685978e-02 6.19433355e-04
      5.16083674e-04 0. 0. 1.01125821e-01 4.11651507e-02 6.92925394e-01
      1.59763336e-01 0. 2.97028804e-03 1.97372939e-02 1.88337311e-01
      9.55971107e-02 9.33739245e-02 0. 9.10761155e-05 1.31859735e-01
      2.39326414e-02 1.13409115e-02 1.96383614e-02 1.49941757e-01
      1.34907767e-01 1.50660994e-02 1.96167454e-02 3.35909612e-02
      6.40974939e-02 8.17271918e-02 6.31393516e-04 5.26048301e-04 0. 0.
      1.03078380e-01 4.19599749e-02 7.06304550e-01 1.62848070e-01 0.
      3.58064915e-03 2.07652058e-02 9.65316687e-03 1.05778594e-02
      9.35211033e-03 5.50799482e-02 5.32880485e-01 1.88588381e-01
      1.16270639e-01 1.54274534e-02 2.67147757e-02 2.03971207e-01
      1.83519930e-01 2.04949621e-02 2.66853701e-02 4.56950031e-02
      8.71941447e-02 1.11176461e-01 1.79723315e-02 3.71769592e-02
      6.03317656e-02 1.40122503e-01 1.63093224e-01 7.38846958e-02
      1.46161109e-01 8.57181251e-02 1.30280837e-01 4.87088691e-03
      2.82476619e-02 1.31315524e-02 1.43894451e-02 1.27220154e-02
      7.49272481e-02 7.24896610e-01 2.56543607e-01 1.58167168e-01
      1.68439522e-02 3.08658201e-02 3.35416943e-02 6.00091144e-02
      1.29410610e-01 8.70881751e-02 2.68365473e-01 1.98441491e-01
      1.81336671e-01 2.22144052e-02 4.59519662e-02 7.45720863e-02
      1.73196122e-01 2.01588705e-01 9.13239643e-02 1.80660024e-01
      1.05950475e-01 1.61031485e-01 5.07728476e-03 1.81682070e-03
      1.95813384e-02 6.09582998e-02 2.41004050e-01 2.69405186e-01
      4.93220121e-01 2.30253428e-01 1.27630726e-01 2.08196901e-02
      3.81511897e-02 4.14586589e-02 7.41732791e-02 1.59955859e-01
      1.07643910e-01 3.31708729e-01 2.45280340e-01 2.24138215e-01
      1.59813147e-02 3.39400209e-02 1.19326100e-01 1.59608498e-01
      2.43969113e-01 1.22117087e-01 3.96358557e-02 4.76724692e-02
      9.79269296e-02 3.02884472e-03 1.08382094e-03 1.16812102e-02
      3.63645591e-02 1.43770501e-01 1.60713151e-01 2.94229537e-01
      1.37357250e-01 7.61378706e-02 6.33318443e-04 5.27652039e-04 0. 0.
      1.03392638e-01 4.20878977e-02 7.08457887e-01 1.63344547e-01 0.
      9.53362323e-03 2.02468559e-02 7.11837560e-02 9.52141508e-02
      1.45539314e-01 7.28487149e-02 2.36446951e-02 2.84389202e-02
      5.84181249e-02 0. 0. 0. 0. 1.93815872e-01 4.57378417e-01
      6.31833896e-02 5.54228798e-02 3.84290516e-03 5.51558565e-04
      4.59533447e-04 0. 0. 9.00448933e-02 3.66544500e-02 6.16997659e-01
      1.42257154e-01 0. 3.12790275e-03 1.81396008e-02 8.43259599e-03
      9.24036745e-03 8.16960633e-03 4.81154993e-02 4.65501726e-01
      1.64742783e-01 1.01569086e-01 0. 0. 0. 0. 1.68794706e-01
      3.98331940e-01 5.50265647e-02 4.82679158e-02 3.34679522e-03
      8.43055430e-04 1.77852577e-03 7.23552937e-03 1.09229842e-02
      9.30167511e-02 2.22818747e-01 2.71038413e-01 8.93020406e-02
      1.25601757e-02</_>
    <_>
      0. 0. 0. 0. 9.70346630e-02 2.92553194e-02 7.28057563e-01
      3.72864753e-01 5.12115918e-02 1.09152589e-03 2.49582995e-02
      1.86515972e-01 1.00368328e-01 7.54701942e-02 9.64619666e-02
      2.53200203e-01 7.29212463e-02 2.76416051e-03 5.06806048e-03
      3.25628109e-02 2.09656596e-01 1.41818821e-01 1.58200294e-01
      5.49441688e-02 7.36066774e-02 5.04716635e-02 4.70068902e-02
      2.35990789e-02 8.43492597e-02 1.06577568e-01 3.78490612e-02
      8.23579729e-02 3.42834890e-02 6.11482896e-02 1.68144077e-01
      1.55817360e-01 1.56647095e-03 3.58181596e-02 2.67672837e-01
      1.44040614e-01 1.08308807e-01 1.38434514e-01 3.63372743e-01
      1.04650758e-01 3.96690238e-03 3.44911264e-03 2.01674327e-02
      2.07641095e-01 1.45481780e-01 1.93200663e-01 1.89231157e-01
      4.21882838e-01 5.12767509e-02 0. 3.38675156e-02 1.21051326e-01
      1.52951628e-01 5.43179549e-02 1.18193597e-01 4.92009297e-02
      8.77551511e-02 2.41306975e-01 2.23616645e-01 2.79839784e-02
      6.42735139e-02 1.31400108e-01 1.77042320e-01 1.15313478e-01
      1.72213510e-01 2.95904219e-01 2.01529622e-01 1.21844023e-01
      2.16388423e-03 1.26525266e-02 1.30268663e-01 9.12715122e-02
      1.21209115e-01 1.18718751e-01 2.64678419e-01 3.21697108e-02 0. 0.
      0. 0. 0. 1.01561002e-01 5.00027426e-02 7.97947407e-01
      1.41513973e-01 4.31218334e-02 1.75564252e-02 4.03235443e-02
      8.24370310e-02 1.11071788e-01 7.23446980e-02 1.08042315e-01
      1.85642675e-01 1.26434490e-01 7.64418021e-02 2.56194058e-03
      2.70165410e-02 1.49475425e-01 1.04093969e-01 1.81221545e-01
      1.20613523e-01 1.40252680e-01 6.70787618e-02 5.91480993e-02 0. 0.
      0. 0. 8.87670591e-02 4.37037461e-02 6.97427571e-01 1.23687036e-01
      3.76896448e-02 3.98824271e-03 2.56248713e-02 1.64986461e-01
      1.11602426e-01 1.24493614e-01 4.32375818e-02 5.79237938e-02
      3.97180058e-02 3.69914435e-02 2.23920518e-03 2.36131866e-02
      1.30645558e-01 9.09809396e-02 1.58392519e-01 1.05419472e-01
      1.22584634e-01 5.86286485e-02 5.16970344e-02 1.59083609e-03
      2.30660313e-03 4.49337112e-03 1.78048499e-02 1.22165941e-01
      6.94532990e-02 4.66919899e-01 2.55681098e-01 1.90634906e-01
      4.65309806e-03 2.98966356e-02 1.92490339e-01 1.30206987e-01
      1.45247176e-01 5.04454523e-02 6.75799176e-02 4.63391468e-02
      4.31580618e-02 2.16668360e-02 7.74429142e-02 9.78512168e-02
      3.47500592e-02 7.56146684e-02 3.14764269e-02 5.61415926e-02
      1.54376790e-01 1.43059358e-01 1.85603462e-03 2.69112270e-03
      5.24243340e-03 2.07729880e-02 1.42531469e-01 8.10314268e-02
      5.44757247e-01 2.98304111e-01 2.22414479e-01 1.03464788e-02
      1.45886969e-02 3.51628400e-02 1.82060264e-02 9.18998849e-03
      1.86076939e-01 5.09774387e-01 2.45509654e-01 1.48812950e-01
      2.74488311e-02 9.81092751e-02 1.23963729e-01 4.40234356e-02
      9.57931504e-02 3.98762040e-02 7.11234957e-02 1.95573673e-01
      1.81236073e-01 2.26803608e-02 5.20921834e-02 1.06496714e-01
      1.43488675e-01 9.34588835e-02 1.39575034e-01 2.39823461e-01
      1.63335055e-01 9.87517387e-02 1.31075326e-02 1.84818264e-02
      4.45463695e-02 2.30644736e-02 1.16424225e-02 2.35733300e-01
      6.45812452e-01 3.11026186e-01 1.88525066e-01 4.13655974e-02
      9.53332260e-02 3.35304923e-02 8.10014755e-02 9.51192752e-02
      3.30521800e-02 1.00171631e-02 1.58141047e-01 2.57397383e-01
      2.66713277e-02 6.12586215e-02 1.25236481e-01 1.68737754e-01
      1.09904446e-01 1.64135456e-01 2.82024175e-01 1.92076430e-01
      1.16128661e-01 3.89204244e-03 4.10429202e-02 2.27079690e-01
      1.58137217e-01 2.75307685e-01 1.83233351e-01 2.13068724e-01
      1.01904549e-01 8.98564607e-02 4.86445278e-02 1.12108611e-01
      3.94307114e-02 9.52549577e-02 1.11857012e-01 3.88682298e-02
      1.17798410e-02 1.85968459e-01 3.02690506e-01 2.75834873e-02
      1.20561592e-01 1.02635855e-02 6.31507114e-02 2.50274211e-01
      1.54873416e-01 4.94328827e-01 4.72168773e-02 1.11410238e-01
      2.20822939e-03 2.32865363e-02 1.28838286e-01 8.97223651e-02
      1.56201422e-01 1.03961170e-01 1.20888874e-01 5.78176193e-02
      5.09818904e-02 1.56882952e-03 2.27469509e-03 4.43121279e-03
      1.75585505e-02 1.20475978e-01 6.84925243e-02 4.60460842e-01
      2.52144158e-01 1.87997788e-01 1.56500526e-02 6.84030727e-02
      5.82325412e-03 3.58298421e-02 1.41998172e-01 8.78705829e-02
      2.80467510e-01 2.67894566e-02 6.32108673e-02 0. 0. 3.85501102e-04
      1.33858519e-02 9.52892825e-02 1.22823659e-02 1.07559115e-01
      6.20523989e-01 2.54998863e-01 1.20760663e-03 1.75094674e-03
      3.41092632e-03 1.35156950e-02 9.27363932e-02 5.27221262e-02
      3.54439765e-01 1.94087997e-01 1.44711301e-01 6.73181191e-03
      9.49196052e-03 2.28782799e-02 1.18455328e-02 5.97935589e-03
      1.21068723e-01 3.31678599e-01 1.59737915e-01 9.68233570e-02 0. 0.
      2.96739512e-04 1.03037599e-02 7.33489320e-02 9.45435185e-03
      8.27936381e-02 4.77648377e-01 1.96285397e-01 2.01071656e-04
      2.01281300e-03 2.40619201e-03 0. 1.45646569e-04 1.18294107e-02
      5.86917222e-01 1.31882712e-01 5.16446792e-02</_>
    <_>
      1.30083514e-02 4.53925692e-02 8.05691555e-02 4.88248877e-02
      2.10982412e-01 2.58704215e-01 1.80113852e-01 1.13174871e-01
      1.37870580e-01 1.30157324e-03 1.74078733e-01 3.11793149e-01
      9.50701088e-02 7.11551085e-02 1.72312737e-01 1.67782143e-01
      1.14025608e-01 4.09472659e-02 1.06742829e-02 2.20076337e-01
      3.08416158e-01 8.23487267e-02 2.75578201e-01 2.30589863e-02
      1.22179650e-01 9.13317949e-02 5.10066859e-02 1.57429893e-02
      1.08029991e-01 2.50830680e-01 1.37320876e-01 1.74026996e-01
      1.76982090e-01 2.80493259e-01 2.29032159e-01 2.44593680e-01
      5.66060480e-04 7.57076740e-02 1.35600343e-01 4.13464494e-02
      3.09456978e-02 7.49396384e-02 7.29692653e-02 4.95902859e-02
      1.78081617e-02 1.66249112e-04 1.14587074e-05 0. 1.36875990e-03
      1.22475680e-02 2.47265771e-02 2.40926430e-01 6.88921273e-01
      1.31254181e-01 6.84670173e-03 4.69827615e-02 1.09087467e-01
      5.97215071e-02 7.56851807e-02 7.69703612e-02 1.21987872e-01
      9.96071845e-02 1.06374972e-01 3.28603247e-03 7.61731761e-03
      2.03766376e-02 1.65380053e-02 5.66796847e-02 1.06347248e-01
      2.70541519e-01 4.97046977e-01 8.84722173e-02 1.35252994e-04
      9.32230159e-06 0. 1.11356308e-03 9.96408425e-03 2.01164596e-02
      1.96007192e-01 5.60476184e-01 1.06782652e-01 6.32171892e-03
      7.66168209e-03 6.99455733e-04 0. 7.86419883e-02 9.04427767e-02
      1.81285024e-01 1.38623238e-01 1.52060464e-01 2.67337216e-03
      6.19711587e-03 1.65775400e-02 1.34545965e-02 4.61121090e-02
      8.65194649e-02 2.20100731e-01 4.04375643e-01 7.19771236e-02
      1.16877852e-03 5.75918020e-05 0. 0. 8.89851376e-02 4.96796817e-02
      2.08657026e-01 5.07724106e-01 8.31014067e-02 7.80071830e-03
      9.45417304e-03 8.63097142e-04 0. 9.70406979e-02 1.11602344e-01
      2.23697603e-01 1.71054870e-01 1.87635809e-01 4.66036471e-03
      9.60847661e-02 1.34653702e-01 3.59532423e-02 1.20316736e-01
      1.00674946e-02 5.33433221e-02 3.98752280e-02 2.22693887e-02
      1.44222041e-03 7.10657114e-05 0. 0. 1.09803684e-01 6.13025054e-02
      2.57473439e-01 6.26508892e-01 1.02543421e-01 7.66605232e-03
      7.97598530e-03 1.27099315e-02 7.21601862e-03 1.04682386e-01
      1.63376443e-02 2.11503997e-01 4.90973085e-01 1.81092396e-01
      6.27533998e-03 1.29381403e-01 1.81315795e-01 4.84122671e-02
      1.62010580e-01 1.35562243e-02 7.18285963e-02 5.36933504e-02
      2.99864914e-02 9.25519783e-03 6.35101125e-02 1.47461683e-01
      8.07300210e-02 1.02309309e-01 1.04046591e-01 1.64900124e-01
      1.34646475e-01 1.43794999e-01 1.03226006e-02 1.07399356e-02
      1.71143562e-02 9.71661508e-03 1.40958399e-01 2.19991952e-02
      2.84797341e-01 6.61111951e-01 2.43847087e-01 4.07900894e-03
      3.61658223e-02 1.11461990e-01 1.31109521e-01 1.07869238e-01
      9.05481800e-02 1.97838128e-01 1.95780724e-01 2.57120401e-01
      8.66715983e-03 5.94749339e-02 1.38092563e-01 7.56007656e-02
      9.58089903e-02 9.74358842e-02 1.54423028e-01 1.26091585e-01
      1.34658843e-01 4.15975042e-03 9.64267366e-03 2.57945489e-02
      2.09352691e-02 7.17501566e-02 1.34623751e-01 3.42475384e-01
      6.29206002e-01 1.11995950e-01 3.81984538e-03 3.38679925e-02
      1.04380146e-01 1.22779354e-01 1.01015657e-01 8.47951174e-02
      1.85268298e-01 1.83341607e-01 2.40784004e-01 6.57722878e-04
      1.73778608e-02 1.12374537e-01 3.58621955e-01 6.75558299e-02
      8.20891261e-02 5.71913272e-02 1.01963140e-01 8.87769982e-02
      3.27827851e-03 7.59934308e-03 2.03285553e-02 1.64989810e-02
      5.65459393e-02 1.06096305e-01 2.69903123e-01 4.95874107e-01
      8.82634521e-02 1.43323909e-03 7.06231585e-05 0. 0. 1.09119892e-01
      6.09207489e-02 2.55870044e-01 6.22607350e-01 1.01904839e-01
      5.18348126e-04 1.36954049e-02 8.85618106e-02 2.82628179e-01
      5.32404147e-02 6.46940321e-02 4.50722016e-02 8.03566426e-02
      6.99647143e-02 9.99933947e-03 3.33577730e-02 8.92518312e-02
      1.21876389e-01 1.30626097e-01 2.41047274e-02 2.35392665e-03
      1.20149285e-01 1.21313937e-01 1.48257322e-03 7.30541069e-05 0. 0.
      1.12875953e-01 6.30177334e-02 2.64677465e-01 6.44038379e-01
      1.05412550e-01 7.88054615e-03 8.19915067e-03 1.30655514e-02
      7.41792051e-03 1.07611366e-01 1.67947672e-02 2.17421815e-01
      5.04710376e-01 1.86159313e-01 1.03435311e-02 3.45059969e-02
      9.23240110e-02 1.26071543e-01 1.35122433e-01 2.49344464e-02
      2.43495218e-03 1.24284998e-01 1.25489742e-01 7.53202196e-03
      5.27365319e-02 6.96737692e-02 3.26191522e-02 1.39431491e-01
      2.89168581e-02 1.20730892e-01 1.34542719e-01 3.08197159e-02
      1.04043763e-02 1.08250175e-02 1.72499362e-02 9.79358982e-03
      1.42075077e-01 2.21734736e-02 2.87053496e-01 6.66349292e-01
      2.45778844e-01 4.11132304e-03 3.64523269e-02 1.12344995e-01
      1.32148176e-01 1.08723782e-01 9.12655070e-02 1.99405417e-01
      1.97331712e-01 2.59157300e-01 9.94423404e-03 6.96259812e-02
      9.19875428e-02 4.30657864e-02 1.84085935e-01 3.81777957e-02
      1.59396276e-01 1.77631482e-01 4.06900644e-02 4.55007656e-03
      8.18530470e-02 2.02834859e-01 6.29231855e-02 2.92394627e-02
      3.67313400e-02 6.75281063e-02 1.62057698e-01 1.89101156e-02</_>
    <_>
      5.50154503e-03 2.72449777e-02 9.56473723e-02 1.58407949e-02
      2.72345543e-01 2.02204704e-01 1.21771358e-01 4.95596230e-02
      2.75064316e-02 4.72835312e-03 2.15236358e-02 3.97558481e-01
      2.60544300e-01 5.28008938e-02 5.27089052e-02 5.88520169e-02
      8.59304965e-02 7.38907722e-04 1.58114806e-02 3.44316438e-02
      3.44117850e-01 3.08547705e-01 2.35284656e-01 0. 1.57022905e-02
      2.39792448e-02 7.22135305e-02 7.91104883e-03 8.50575045e-02
      2.32242510e-01 1.71208933e-01 1.33627027e-01 1.23404860e-01
      1.34637073e-01 3.32597703e-01 2.91655272e-01 3.06967786e-03
      1.39732854e-02 2.58097559e-01 1.69147059e-01 3.42786871e-02
      3.42189670e-02 3.82071137e-02 5.57866395e-02 4.79703740e-04
      8.08868743e-03 7.57738063e-03 7.94018898e-03 1.48238651e-02
      3.88977751e-02 9.65833142e-02 6.80120230e-01 1.88165501e-01
      1.24118984e-01 5.13590500e-03 5.52198887e-02 1.50773361e-01
      1.11149967e-01 8.67515430e-02 8.01152438e-02 8.74072686e-02
      2.15924621e-01 1.89344510e-01 6.68758294e-03 3.65258008e-02
      5.00754118e-02 5.34010492e-02 1.53300464e-01 1.77885383e-01
      3.14351112e-01 2.16756597e-01 1.52071536e-01 5.83998207e-03
      5.47082210e-03 5.73276728e-03 1.07027395e-02 2.80839521e-02
      6.97325543e-02 4.91042584e-01 1.35854319e-01 8.96131396e-02
      3.46366526e-03 1.16893398e-02 1.28552718e-02 2.59028580e-02
      1.05403751e-01 4.87943925e-02 3.01793605e-01 1.96166366e-01
      1.25665426e-01 4.82839346e-03 2.63714027e-02 3.61541398e-02
      3.85552272e-02 1.10681988e-01 1.28432155e-01 2.26959571e-01
      1.56496927e-01 1.09794714e-01 1.39527966e-03 1.01842312e-03 0. 0.
      1.04788922e-01 1.34933606e-01 6.34851098e-01 4.79956120e-02
      1.08878948e-01 3.29201366e-03 1.11100413e-02 1.22181932e-02
      2.46191695e-02 1.00180171e-01 4.63762507e-02 2.86837369e-01
      1.86444789e-01 1.19437732e-01 7.04392372e-03 1.53390989e-02
      1.53302521e-01 1.37456223e-01 1.04817957e-01 0. 6.99527934e-03
      1.06826155e-02 3.21707129e-02 1.32613268e-03 9.67952365e-04 0. 0.
      9.95958149e-02 1.28246590e-01 6.03389263e-01 4.56170551e-02
      1.03483148e-01 9.41021135e-04 3.37745436e-03 1.50757970e-03 0.
      1.02212355e-01 1.06506594e-01 6.05918944e-01 6.16542511e-02
      6.90873712e-02 8.85908213e-03 1.92918517e-02 1.92807257e-01
      1.72877505e-01 1.31828636e-01 0. 8.79790261e-03 1.34354327e-02
      4.04608287e-02 4.43251524e-03 4.76572290e-02 1.30124137e-01
      9.59273800e-02 7.48704597e-02 6.91430345e-02 7.54363760e-02
      1.86352581e-01 1.63412780e-01 1.18351413e-03 4.24779532e-03
      1.89606997e-03 0. 1.28551587e-01 1.33952424e-01 7.62058973e-01
      7.75420144e-02 8.68905857e-02 5.67833334e-03 2.89380923e-02
      5.05073033e-02 5.67313731e-02 8.34779814e-02 1.90243632e-01
      2.87494481e-01 1.89507440e-01 1.00628346e-01 5.90607338e-03
      6.35005385e-02 1.73382983e-01 1.27817750e-01 9.97606069e-02
      9.21291411e-02 1.00514665e-01 2.48304173e-01 2.17738181e-01
      7.69043760e-03 4.20031250e-02 5.75846061e-02 6.14089482e-02
      1.76289052e-01 2.04560667e-01 3.61490488e-01 2.49260917e-01
      1.74875841e-01 7.56605435e-03 3.85583527e-02 6.72980919e-02
      7.55913109e-02 1.11229636e-01 2.53488749e-01 3.83069962e-01
      2.52507836e-01 1.34081528e-01 8.58108629e-04 4.42008898e-02
      1.99649468e-01 1.84135452e-01 8.93540904e-02 4.83078025e-02
      1.27851248e-01 2.47090369e-01 1.62389874e-01 5.72278397e-03
      3.12563255e-02 4.28511761e-02 4.56970297e-02 1.31184235e-01
      1.52222365e-01 2.69000560e-01 1.85485736e-01 1.30132601e-01
      1.65373529e-03 1.20707147e-03 0. 0. 1.24199569e-01 1.59928113e-01
      7.52448142e-01 5.68861105e-02 1.29047215e-01 6.38555386e-04
      3.28917764e-02 1.48567736e-01 1.37023091e-01 6.64922073e-02
      3.59479077e-02 9.51395929e-02 1.83870539e-01 1.20841272e-01
      3.82422213e-03 1.73503514e-02 2.27805421e-01 1.65884718e-01
      1.35052234e-01 8.11482687e-03 1.11968247e-02 0. 2.53981967e-02
      1.36761367e-03 9.98229603e-04 0. 0. 1.02711134e-01 1.32258102e-01
      6.22263074e-01 4.70439419e-02 1.06720068e-01 9.70455934e-04
      3.48310010e-03 1.55473629e-03 0. 1.05409518e-01 1.09838083e-01
      6.24871850e-01 6.35827705e-02 7.12483972e-02 3.16257286e-03
      1.43484743e-02 1.88391596e-01 1.37184113e-01 1.11686125e-01
      6.71083760e-03 9.25960205e-03 0. 2.10039187e-02 2.48070201e-03
      2.69785095e-02 3.77432443e-02 3.97017747e-02 1.23669252e-01
      7.79575184e-02 1.70980722e-01 1.50696069e-01 6.11900538e-02
      1.10486464e-03 3.96551145e-03 1.77006808e-03 0. 1.20008796e-01
      1.25050724e-01 7.11416960e-01 7.23890215e-02 8.11163411e-02
      5.30098379e-03 2.70150341e-02 4.71508801e-02 5.29613346e-02
      7.79305100e-02 1.77601129e-01 2.68389255e-01 1.76913872e-01
      9.39411670e-02 2.82428064e-03 3.07150483e-02 4.29707058e-02
      4.52004932e-02 1.40797511e-01 8.87546763e-02 1.94661647e-01
      1.71567559e-01 6.96649104e-02 2.16092844e-03 1.76352207e-02
      5.79651035e-02 8.82572979e-02 5.84199950e-02 1.33929163e-01
      3.97871435e-01 9.40670166e-03 2.27892492e-02</_>
    <_>
      0. 5.26891798e-02 1.03664339e-01 5.63091099e-01 2.45599002e-01
      2.89174579e-02 4.19262971e-04 2.56463629e-03 4.23526652e-02
      9.10343230e-03 2.07132250e-01 2.34791353e-01 1.03485815e-01
      7.96284229e-02 1.29548116e-02 2.09934860e-02 4.64829318e-02
      4.82198149e-02 0. 1.73308969e-01 3.75163525e-01 3.52725647e-02
      3.04852813e-01 2.36691479e-02 7.61282491e-03 2.47563720e-02
      1.73356719e-02 1.18666533e-02 1.24320999e-01 1.78442851e-01
      5.94529845e-02 1.47370204e-01 2.08316952e-01 2.22270757e-01
      1.95668057e-01 1.26176566e-01 5.68577321e-03 1.29369557e-01
      1.46644741e-01 6.46346211e-02 4.97338958e-02 8.09124764e-03
      1.31120002e-02 2.90320627e-02 3.01168766e-02 2.87810515e-04
      4.67611826e-04 7.69122643e-03 1.07228803e-02 1.17455088e-01
      4.82083857e-02 8.00749004e-01 1.31188974e-01 1.14121363e-02
      7.41161173e-03 7.76477456e-02 1.11450888e-01 3.71328294e-02
      9.20436978e-02 1.30109504e-01 1.38824686e-01 1.22209318e-01
      7.88066909e-02 1.07573215e-02 4.04815599e-02 3.58881503e-02
      6.63668439e-02 7.29674846e-02 1.27252817e-01 3.23702961e-01
      2.07217276e-01 1.25953585e-01 2.10640239e-04 3.42231651e-04
      5.62898768e-03 7.84776825e-03 8.59620050e-02 3.52823325e-02
      5.86045206e-01 9.60134417e-02 8.35221447e-03 1.38530927e-03
      2.52414378e-03 1.14848353e-02 3.60459019e-03 9.99466330e-02
      8.21933448e-02 4.68552679e-01 1.09500639e-01 1.92594491e-02
      7.87297543e-03 2.96272896e-02 2.62655057e-02 4.85719889e-02
      5.34028076e-02 9.31326821e-02 2.36908898e-01 1.51656374e-01
      9.21818167e-02 2.99912388e-03 4.64411499e-03 3.43120715e-04
      8.03484768e-03 1.03264727e-01 1.08635128e-01 4.95660335e-01
      5.89126386e-02 1.22008115e-01 1.55893480e-03 2.84050335e-03
      1.29242688e-02 4.05636569e-03 1.12473287e-01 9.24949124e-02
      5.27277946e-01 1.23224728e-01 2.16733012e-02 0. 8.91499966e-02
      1.92983836e-01 1.81441791e-02 1.56816050e-01 1.21753914e-02
      3.91603122e-03 1.27346581e-02 8.91745556e-03 3.37501406e-03
      5.22617763e-03 3.86125175e-04 9.04188305e-03 1.16207242e-01
      1.22250736e-01 5.57783127e-01 6.62963614e-02 1.37299806e-01
      7.15242140e-03 1.96847450e-02 2.08960120e-02 5.27689653e-03
      1.22390866e-01 5.05096465e-02 4.43833619e-01 1.55248478e-01
      1.09295160e-01 0. 1.21386334e-01 2.62766123e-01 2.47050542e-02
      2.13520199e-01 1.65779721e-02 5.33205504e-03 1.73394680e-02
      1.21419774e-02 8.31145514e-03 8.70749578e-02 1.24982134e-01
      4.16411236e-02 1.03218719e-01 1.45906091e-01 1.55679390e-01
      1.37046739e-01 8.83745998e-02 9.73871257e-03 2.68026832e-02
      2.84519400e-02 7.18500465e-03 1.66646987e-01 6.87737688e-02
      6.04322374e-01 2.11385801e-01 1.48815915e-01 7.40558282e-03
      2.16250438e-02 3.85752134e-02 8.85522887e-02 1.04484953e-01
      1.44632131e-01 3.61534894e-01 2.82974303e-01 2.06905335e-01
      9.19878483e-03 9.63710696e-02 1.38325214e-01 4.60867248e-02
      1.14238344e-01 1.61483005e-01 1.72299713e-01 1.51677832e-01
      9.78094712e-02 1.33512514e-02 5.02429381e-02 4.45419140e-02
      8.23699832e-02 9.05622467e-02 1.57937497e-01 4.01757956e-01
      2.57183909e-01 1.56324968e-01 8.19620211e-03 2.39337329e-02
      4.26934995e-02 9.80061218e-02 1.15639761e-01 1.60073042e-01
      4.00132358e-01 3.13184619e-01 2.28994533e-01 1.43962596e-02
      8.37011933e-02 9.45910662e-02 4.77469862e-02 7.32479990e-02
      1.67135924e-01 1.78165898e-01 2.99255580e-01 1.91429719e-01
      1.10655967e-02 4.16416451e-02 3.69166024e-02 6.82687312e-02
      7.50585273e-02 1.30899534e-01 3.32979351e-01 2.13155538e-01
      1.29563063e-01 4.21531778e-03 6.52738009e-03 4.82261821e-04
      1.12931114e-02 1.45140275e-01 1.52688473e-01 6.96658790e-01
      8.28026831e-02 1.71484426e-01 1.19317053e-02 6.93720430e-02
      7.83976316e-02 3.95729840e-02 6.07083775e-02 1.38523236e-01
      1.47664949e-01 2.48024806e-01 1.58658072e-01 5.27682342e-03
      9.28512439e-02 2.09805667e-01 4.16114964e-02 1.44255817e-01
      3.87352295e-02 2.00514160e-02 8.54967907e-02 4.04258743e-02
      3.40118259e-03 5.26669901e-03 3.89119057e-04 9.11199022e-03
      1.17108271e-01 1.23198621e-01 5.62107980e-01 6.68103918e-02
      1.38364375e-01 7.20787840e-03 1.98373720e-02 2.10580304e-02
      5.31781139e-03 1.23339832e-01 5.09012789e-02 4.47274923e-01
      1.56452209e-01 1.10142589e-01 4.25767154e-03 7.49182031e-02
      1.69284359e-01 3.35747637e-02 1.16394632e-01 3.12540121e-02
      1.61787383e-02 6.89841658e-02 3.26181278e-02 0. 0. 0.
      3.12968972e-03 2.65126824e-01 4.99234647e-01 1.33975931e-02
      1.60622634e-02 5.30678593e-03 7.35253142e-03 2.02354845e-02
      2.14806404e-02 5.42453350e-03 1.25815108e-01 5.19228019e-02
      4.56251174e-01 1.59592003e-01 1.12353012e-01 5.59106516e-03
      1.63264722e-02 2.91235074e-02 6.68551847e-02 7.88840279e-02
      1.09194331e-01 2.72951543e-01 2.13639885e-01 1.56209335e-01 0. 0.
      0. 3.19249858e-03 2.70447582e-01 5.09253681e-01 1.36664668e-02
      1.63846128e-02 5.41328639e-03 1.09103974e-03 3.38997366e-03
      1.38948122e-02 8.38019978e-03 9.03207734e-02 2.84702659e-01
      3.54393065e-01 1.31494254e-01 2.45782621e-02</_>
    <_>
      3.30095110e-03 1.06672244e-02 2.27061603e-02 1.85994476e-01
      6.74718618e-01 4.34419364e-02 2.46958137e-02 2.88423547e-03 0.
      4.04214626e-03 2.95095723e-02 2.61606514e-01 6.60029203e-02
      2.73830980e-01 7.47287720e-02 4.48730774e-02 1.12769995e-02 0.
      2.80074752e-03 1.96611024e-02 3.31314683e-01 2.38602772e-01
      1.89445972e-01 0. 0. 2.54593301e-03 6.02382533e-02 7.11810077e-03
      3.91379632e-02 2.81121582e-01 1.14474237e-01 6.21571504e-02
      9.51942056e-02 1.24264538e-01 1.36282772e-01 5.78684621e-02
      3.69548309e-03 2.69787703e-02 2.39170581e-01 6.03423715e-02
      2.50346661e-01 6.83198720e-02 4.10246663e-02 1.03098601e-02 0.
      2.08489900e-03 6.87622279e-03 8.55654925e-02 8.42995420e-02
      6.82191029e-02 1.16629437e-01 4.57652122e-01 3.21805894e-01 0.
      6.50763744e-03 3.57814096e-02 2.57011980e-01 1.04656681e-01
      5.68264201e-02 8.70301500e-02 1.13607347e-01 1.24594875e-01
      5.29055409e-02 4.52662865e-03 1.71932690e-02 4.98023815e-02
      7.06873611e-02 1.30429775e-01 1.68831080e-01 2.93556869e-01
      4.94107962e-01 1.39832288e-01 1.41365442e-03 4.66238568e-03
      5.80172203e-02 5.71588464e-02 4.62555923e-02 7.90799558e-02
      3.10308546e-01 2.18198746e-01 0. 2.03564810e-03 7.43195554e-03
      8.89165513e-03 3.10488157e-02 1.02804020e-01 6.34980500e-02
      2.45757714e-01 3.14459801e-01 5.85288070e-02 3.06925620e-03
      1.16578024e-02 3.37682366e-02 4.79291826e-02 8.84371996e-02
      1.14474997e-01 1.99044645e-01 3.35027218e-01 9.48125273e-02 0. 0.
      0. 0. 9.76297259e-02 2.31837910e-02 3.73561084e-01 5.70074618e-01
      5.17229810e-02 2.04861932e-03 7.47931236e-03 8.94831307e-03
      3.12466603e-02 1.03459097e-01 6.39026687e-02 2.47323707e-01
      3.16463560e-01 5.89017570e-02 1.74722972e-03 1.22654615e-02
      2.06688687e-01 1.48850918e-01 1.18184745e-01 0. 0. 1.58826518e-03
      3.75792757e-02 0. 0. 0. 0. 9.82518271e-02 2.33315192e-02
      3.75941455e-01 5.73707163e-01 5.20525649e-02 1.39340654e-03
      3.19595332e-03 2.17331275e-02 1.56642422e-02 1.27245232e-01
      1.08364895e-01 2.79376447e-01 3.81257802e-01 5.86846508e-02
      2.28597992e-03 1.60474591e-02 2.70420194e-01 1.94748417e-01
      1.54626459e-01 0. 0. 2.07799929e-03 4.91666719e-02 5.80981886e-03
      3.19445431e-02 2.29452416e-01 9.34342742e-02 5.07328808e-02
      7.76978433e-02 1.01425149e-01 1.11234471e-01 4.72324379e-02
      1.82305695e-03 4.18141065e-03 2.84344368e-02 2.04942375e-02
      1.66480720e-01 1.41778708e-01 3.65520895e-01 4.98816848e-01
      7.67797902e-02 4.11828561e-03 3.44767384e-02 5.35959266e-02
      6.50332049e-02 3.96991558e-02 7.93305710e-02 3.33078742e-01
      4.29388106e-01 1.32439151e-01 6.18866272e-03 3.40275653e-02
      2.44414434e-01 9.95268896e-02 5.40410466e-02 8.27643275e-02
      1.08038828e-01 1.18487798e-01 5.03123514e-02 4.30475408e-03
      1.63505320e-02 4.73612957e-02 6.72225878e-02 1.24036700e-01
      1.60555750e-01 2.79168040e-01 4.69889015e-01 1.32978350e-01
      4.38682875e-03 3.67248841e-02 5.70907854e-02 6.92738593e-02
      4.22878377e-02 8.45035240e-02 3.54797989e-01 4.57387447e-01
      1.41075179e-01 5.08808997e-03 3.00759934e-02 1.39962107e-01
      1.22667782e-01 1.17383763e-01 1.21118091e-01 1.05906673e-01
      2.47585565e-01 1.29029423e-01 3.41139478e-03 1.29573299e-02
      3.75324748e-02 5.32719828e-02 9.82955396e-02 1.27235845e-01
      2.21232712e-01 3.72373641e-01 1.05381541e-01 0. 0. 0. 0.
      1.08512782e-01 2.57681515e-02 4.15202975e-01 6.33622408e-01
      5.74886836e-02 4.03216621e-03 2.38343645e-02 1.10915966e-01
      9.72107127e-02 9.30232778e-02 9.59826335e-02 8.39280114e-02
      1.96204498e-01 1.02252141e-01 5.21841226e-03 1.39440382e-02
      1.69804275e-01 8.17327797e-02 1.07385963e-01 3.48906452e-03
      8.09901208e-02 1.26576513e-01 1.23847403e-01 0. 0. 0. 0.
      1.07364163e-01 2.54953951e-02 4.10808027e-01 6.26915455e-01
      5.68801612e-02 1.52263755e-03 3.49236117e-03 2.37487592e-02
      1.71170179e-02 1.39046550e-01 1.18415169e-01 3.05287153e-01
      4.16617423e-01 6.41273409e-02 5.16317505e-03 1.37964394e-02
      1.68006882e-01 8.08676332e-02 1.06249280e-01 3.45213246e-03
      8.01328346e-02 1.25236690e-01 1.22536466e-01 6.40837615e-03
      6.87933015e-03 9.48505197e-03 1.95917971e-02 5.37840016e-02
      5.10050617e-02 5.60425371e-02 7.21160993e-02 1.41027525e-01
      1.63175259e-03 3.74263013e-03 2.54506394e-02 1.83436535e-02
      1.49010897e-01 1.26901016e-01 3.27164590e-01 4.46473002e-01
      6.87228218e-02 3.68612912e-03 3.08588874e-02 4.79717851e-02
      5.82088791e-02 3.55332829e-02 7.10059404e-02 2.98126787e-01
      3.84329826e-01 1.18541509e-01 6.86761225e-03 7.37231597e-03
      1.01647684e-02 2.09957808e-02 5.76382652e-02 5.46601787e-02
      6.00586496e-02 7.72840679e-02 1.51133820e-01 0. 3.85780470e-03
      2.17825584e-02 2.64710151e-02 5.30876555e-02 1.05125859e-01
      3.51209849e-01 4.51903492e-01 6.31704405e-02</_>
    <_>
      1.99545058e-03 9.04637575e-03 2.05679759e-02 2.61633456e-01
      2.75710583e-01 7.30834380e-02 4.04047817e-02 1.65076759e-02
      2.49685999e-02 0. 4.46032453e-03 3.65008935e-02 4.00342673e-01
      1.50265113e-01 3.49569842e-02 2.17727609e-02 0. 1.74484104e-02
      1.98771432e-03 1.99792981e-02 1.58966538e-02 3.76316458e-02
      1.28577724e-01 1.21318940e-02 2.97607239e-02 5.13017595e-01
      5.10022461e-01 7.64450664e-03 4.82315160e-02 6.67353272e-02
      9.30584520e-02 9.40560028e-02 7.94131085e-02 1.09688051e-01
      1.60403281e-01 2.22682774e-01 0. 4.26865276e-03 3.49323563e-02
      3.83138895e-01 1.43807828e-01 3.34547944e-02 2.08371300e-02 0.
      1.66986082e-02 2.91652931e-03 3.10078524e-02 6.46504983e-02
      7.30568990e-02 2.14571804e-02 5.06090820e-02 5.17540686e-02
      2.83425987e-01 3.19091499e-01 7.31600262e-03 4.61588837e-02
      6.38675392e-02 8.90594870e-02 9.00141746e-02 7.60005191e-02
      1.04974471e-01 1.53510332e-01 2.13113517e-01 4.10346128e-03
      9.11134481e-03 1.93116032e-02 3.42592224e-02 4.50092964e-02
      7.86003694e-02 7.16690868e-02 4.74556744e-01 5.31835914e-01
      2.45414767e-03 2.60919221e-02 5.44009171e-02 6.14745840e-02
      1.80553962e-02 4.25856039e-02 4.35490683e-02 2.38492131e-01
      2.68503278e-01 9.07778833e-03 2.06152033e-02 4.89434749e-02
      1.47899026e-02 7.98600912e-02 0. 2.68847868e-03 1.19098179e-01
      3.13253909e-01 3.45290545e-03 7.66684813e-03 1.62499733e-02
      2.88278237e-02 3.78735997e-02 6.61391988e-02 6.03067912e-02
      3.99321318e-01 4.47519541e-01 3.44069977e-03 1.64237607e-03 0. 0.
      9.12686810e-02 9.16436873e-03 3.12491357e-02 3.83081526e-01
      4.59617108e-01 7.88449775e-03 1.79053005e-02 4.25097719e-02
      1.28457453e-02 6.93623498e-02 0. 2.33507366e-03 1.03442520e-01
      2.72076160e-01 1.39029406e-03 1.39743937e-02 1.11188143e-02
      2.63212174e-02 8.99328664e-02 8.48557614e-03 2.08159499e-02
      3.58826905e-01 3.56731981e-01 2.98841391e-03 1.42648304e-03 0. 0.
      7.92712569e-02 7.95969740e-03 2.71413848e-02 3.32724810e-01
      3.99199665e-01 1.23258051e-03 6.57214271e-03 4.84314095e-03
      9.33709368e-03 1.00857794e-01 3.58211837e-04 1.35757076e-02
      4.43330050e-01 3.97827566e-01 1.50380307e-03 1.51153160e-02
      1.20265968e-02 2.84701809e-02 9.72753316e-02 9.17837117e-03
      2.25154422e-02 3.88122916e-01 3.85856926e-01 5.78344334e-03
      3.64895016e-02 5.04885390e-02 7.04032630e-02 7.11579695e-02
      6.00798987e-02 8.29843730e-02 1.21352918e-01 1.68470398e-01
      1.33321306e-03 7.10871769e-03 5.23855351e-03 1.00994091e-02
      1.09092206e-01 3.87457636e-04 1.46840792e-02 4.79525208e-01
      4.30307716e-01 3.35708400e-03 1.56613532e-02 2.78087538e-02
      4.74426486e-02 5.45084886e-02 7.68877268e-02 6.81036562e-02
      2.35667661e-01 3.49210203e-01 7.18775531e-03 4.53497320e-02
      6.27479628e-02 8.74982998e-02 8.84362534e-02 7.46682584e-02
      1.03134297e-01 1.50819346e-01 2.09377706e-01 4.03152872e-03
      8.95162579e-03 1.89730749e-02 3.36586684e-02 4.42202948e-02
      7.72225261e-02 7.04127476e-02 4.66237903e-01 5.22512972e-01
      4.17223712e-03 1.94641799e-02 3.45611647e-02 5.89624792e-02
      6.77440166e-02 9.55572873e-02 8.46403092e-02 2.92891532e-01
      4.34004009e-01 8.19000509e-03 4.39444259e-02 5.70149273e-02
      1.21236749e-01 9.36024114e-02 5.92601113e-02 9.91931260e-02
      1.97188556e-01 9.88779292e-02 3.25039588e-03 7.21719489e-03
      1.52969286e-02 2.71371007e-02 3.56523506e-02 6.22601993e-02
      5.67698553e-02 3.75901520e-01 4.21272933e-01 3.23890592e-03
      1.54605240e-03 0. 0. 8.59158561e-02 8.62688757e-03 2.94164047e-02
      3.60614151e-01 4.32661027e-01 6.60314225e-03 3.54299322e-02
      4.59679440e-02 9.77464020e-02 7.54663870e-02 4.77781110e-02
      7.99738616e-02 1.58982098e-01 7.97197372e-02 2.68160133e-03
      1.01538328e-03 5.77332638e-03 2.13264842e-02 1.45913050e-01
      4.70836386e-02 5.14511727e-02 3.72494459e-01 3.49110037e-01
      3.04894242e-03 1.45537558e-03 0. 0. 8.08768496e-02 8.12091585e-03
      2.76911166e-02 3.39463949e-01 4.07285213e-01 1.25754566e-03
      6.70525758e-03 4.94123576e-03 9.52621084e-03 1.02900602e-01
      3.65467218e-04 1.38506750e-02 4.52309430e-01 4.05885309e-01
      2.52432399e-03 9.55830503e-04 5.43471752e-03 2.00756751e-02
      1.37355164e-01 4.43221591e-02 4.84335348e-02 3.50647449e-01
      3.28634530e-01 3.32173845e-03 4.42012725e-03 2.42485367e-02
      1.27930894e-01 1.28703475e-01 9.00941622e-03 2.54059546e-02
      1.54393658e-01 1.36177927e-01 1.49827334e-03 7.98882265e-03
      5.88711957e-03 1.13497805e-02 1.22598521e-01 4.35427355e-04
      1.65020619e-02 5.38893521e-01 4.83582586e-01 3.77271231e-03
      1.76003296e-02 3.12516578e-02 5.33163510e-02 6.12569898e-02
      8.64069164e-02 7.65353292e-02 2.64844835e-01 3.92444670e-01
      3.95760732e-03 5.26625710e-03 2.88903527e-02 1.52420267e-01
      1.53340757e-01 1.07340580e-02 3.02693322e-02 1.83948711e-01
      1.62246019e-01 4.22917260e-03 1.71148926e-02 2.37637926e-02
      1.40024632e-01 5.85257448e-02 6.36202469e-02 5.87873682e-02
      1.96186662e-01 1.90047473e-01</_>
    <_>
      7.70953298e-03 1.63094085e-02 5.01426272e-02 3.14373583e-01
      5.51027834e-01 1.96771294e-01 9.94105707e-04 6.89087063e-02
      1.25275496e-02 4.02068682e-02 7.96852335e-02 2.25938018e-02
      3.23367529e-02 2.66030692e-02 2.60840297e-01 3.72206509e-01
      2.37960935e-01 1.18184641e-01 4.87915650e-02 1.89510986e-01
      4.37289886e-02 1.12194501e-01 2.90843636e-01 6.84612840e-02
      2.69195996e-02 7.41582811e-02 8.65276605e-02 5.39533719e-02
      1.92652300e-01 7.00746700e-02 1.12345435e-01 1.34695932e-01
      8.70039687e-02 1.05944023e-01 8.34489539e-02 8.02034736e-02
      3.80190946e-02 7.53493235e-02 2.13644058e-02 3.05772163e-02
      2.51555182e-02 2.46647194e-01 3.51953655e-01 2.25012779e-01
      1.11753866e-01 1.06479665e-02 1.33970782e-01 8.59501287e-02
      8.15119520e-02 1.49064809e-01 3.25883120e-01 1.62902132e-01 0.
      3.36028263e-02 5.10176085e-02 1.82169527e-01 6.62617013e-02
      1.06232390e-01 1.27366722e-01 8.22698250e-02 1.00179300e-01
      7.89082497e-02 7.58393630e-02 8.97623319e-03 4.06593867e-02
      7.60545582e-02 7.69591033e-02 1.02667421e-01 3.67902964e-01
      3.75369072e-01 2.94447392e-01 2.67288625e-01 9.84505937e-03
      1.23868756e-01 7.94690773e-02 7.53655657e-02 1.37824610e-01
      3.01309973e-01 1.50618538e-01 0. 3.10690124e-02 1.96818691e-02
      1.12932101e-01 9.01949629e-02 5.95096983e-02 2.29293898e-01
      9.20634121e-02 6.37710616e-02 1.13170207e-01 7.58167207e-02
      8.29938333e-03 3.75934765e-02 7.03196824e-02 7.11560249e-02
      9.49258134e-02 3.40161353e-01 3.47064495e-01 2.72244662e-01
      2.47133791e-01 3.14185061e-02 5.61730713e-02 2.50255093e-02
      3.79270986e-02 1.84478879e-01 9.97322127e-02 3.63643020e-01
      2.68966734e-01 2.89855033e-01 2.00585052e-02 1.15093194e-01
      9.19209495e-02 6.06484897e-02 2.33681723e-01 9.38251540e-02
      6.49913996e-02 1.15335859e-01 7.72675648e-02 4.34740558e-02
      1.68857291e-01 3.89632210e-02 9.99670699e-02 2.59146303e-01
      6.10000901e-02 2.39857882e-02 6.60762042e-02 7.70975128e-02
      3.20197344e-02 5.72480112e-02 2.55044028e-02 3.86528783e-02
      1.88009113e-01 1.01640716e-01 3.70601773e-01 2.74113744e-01
      2.95401782e-01 2.60203630e-02 4.81571257e-02 1.54481037e-02
      1.68449096e-02 1.99756935e-01 1.85054183e-01 4.82729822e-01
      2.55451739e-01 1.89254999e-01 3.87356021e-02 1.50452688e-01
      3.47164236e-02 8.90711620e-02 2.30900645e-01 5.43513857e-02
      2.13714577e-02 5.88742271e-02 6.86942711e-02 4.28335555e-02
      1.52946576e-01 5.56322485e-02 8.91909897e-02 1.06935039e-01
      6.90724105e-02 8.41089115e-02 6.62500858e-02 6.36735037e-02
      2.31842734e-02 4.29082401e-02 1.37643376e-02 1.50088994e-02
      1.77984431e-01 1.64884195e-01 4.30114686e-01 2.27608770e-01
      1.68627143e-01 5.40434243e-03 3.25890146e-02 4.48661074e-02
      3.60192694e-02 5.97272329e-02 4.26023036e-01 5.25772810e-01
      1.46478534e-01 1.39845431e-01 4.30157185e-02 1.53597027e-01
      5.58688417e-02 8.95702988e-02 1.07389808e-01 6.93661645e-02
      8.44666138e-02 6.65318295e-02 6.39442950e-02 7.56835053e-03
      3.42821404e-02 6.41257316e-02 6.48884028e-02 8.65644813e-02
      3.10198992e-01 3.16494077e-01 2.48264611e-01 2.25365564e-01
      5.42732608e-03 3.27276066e-02 4.50569168e-02 3.61724533e-02
      5.99812418e-02 4.27834839e-01 5.28008819e-01 1.47101477e-01
      1.40440166e-01 3.63425650e-02 1.22909322e-01 8.77381042e-02
      7.39758611e-02 8.98403227e-02 1.02776274e-01 8.35923329e-02
      5.55304624e-02 1.89776763e-01 8.56527872e-03 3.87978964e-02
      7.25725815e-02 7.34357163e-02 9.79670435e-02 3.51059437e-01
      3.58183712e-01 2.80966848e-01 2.55051464e-01 3.24250907e-02
      5.79727404e-02 2.58272756e-02 3.91422026e-02 1.90389216e-01
      1.02927431e-01 3.75293404e-01 2.77583897e-01 2.99141407e-01
      4.11297269e-02 1.39099345e-01 9.92952585e-02 8.37202072e-02
      1.01674385e-01 1.16314307e-01 9.46033895e-02 6.28451183e-02
      2.14774787e-01 5.01591563e-02 1.32657975e-01 8.59447941e-02
      9.57107991e-02 2.31735140e-01 3.51186022e-02 5.27169369e-02
      5.72527833e-02 5.77892400e-02 2.87085474e-02 5.13279438e-02
      2.28669699e-02 3.46557498e-02 1.68566927e-01 9.11299586e-02
      3.32277536e-01 2.45767415e-01 2.64854014e-01 2.33295746e-02
      4.31771576e-02 1.38506023e-02 1.51029630e-02 1.79099903e-01
      1.65917560e-01 4.32810307e-01 2.29035258e-01 1.69683978e-01
      4.44099456e-02 1.17452800e-01 7.60938600e-02 8.47404897e-02
      2.05173820e-01 3.10933311e-02 4.66745570e-02 5.06905057e-02
      5.11654727e-02 1.36101395e-02 3.74415517e-03 0. 1.68031584e-02
      2.87355006e-01 8.94810632e-02 1.95462570e-01 1.61477342e-01
      3.89386952e-01 1.91937163e-02 3.55227254e-02 1.13951722e-02
      1.24255158e-02 1.47349134e-01 1.36503756e-01 3.56081843e-01
      1.88431963e-01 1.39602467e-01 4.47412860e-03 2.69796792e-02
      3.71435992e-02 2.98195090e-02 4.94467765e-02 3.52694482e-01
      4.35274959e-01 1.21266142e-01 1.15774751e-01 1.11973388e-02
      3.08039272e-03 0. 1.38243008e-02 2.36412808e-01 7.36178979e-02
      1.60811037e-01 1.32850692e-01 3.20356578e-01 3.38231437e-02
      5.34051582e-02 0. 0. 0. 9.70800668e-02 4.24206614e-01
      1.54495344e-01 5.92181236e-02</_>
    <_>
      9.14139003e-02 1.21870846e-01 2.60802247e-02 1.14814602e-02
      1.79207891e-01 3.47045362e-02 5.64681813e-02 3.90370637e-02
      5.21217249e-02 7.23877596e-03 2.34777201e-02 6.68321475e-02
      9.43958387e-02 1.08543523e-01 7.38492131e-01 1.55137643e-01
      7.99264535e-02 1.12730831e-01 1.28866792e-01 1.19679436e-01
      1.48725128e-02 1.03691425e-02 1.99800864e-01 9.36850812e-03 0.
      9.55187250e-03 3.27901989e-02 2.85136215e-02 6.34026378e-02
      1.00911081e-01 8.17240104e-02 1.78485677e-01 3.58523667e-01
      1.61440179e-01 1.82151720e-01 8.46534967e-02 4.43163281e-03
      1.43732354e-02 4.09151427e-02 5.77898398e-02 6.64511546e-02
      4.52110410e-01 9.49764252e-02 4.89315726e-02 6.90146610e-02 0. 0.
      1.93804142e-03 3.04735154e-02 5.44768311e-02 7.59381473e-01
      1.02040432e-01 4.97139711e-03 0. 1.74562521e-02 3.88155654e-02
      6.17785193e-02 5.00320494e-02 1.09270267e-01 2.19490871e-01
      9.88348797e-02 1.11514643e-01 5.18255048e-02 2.76573375e-02
      4.62479256e-02 4.30157930e-02 2.93624811e-02 5.83934970e-02
      1.27603546e-01 1.52292281e-01 1.40333951e-01 1.32033691e-01 0. 0.
      2.10821535e-03 3.31493095e-02 5.92602901e-02 8.26060653e-01
      1.11000322e-01 5.40792150e-03 0. 1.65517349e-02 2.20665559e-02
      2.15135962e-02 3.24315429e-02 1.80701569e-01 1.10323928e-01
      9.29178298e-02 1.11180998e-01 1.80242196e-01 3.00858505e-02
      5.03088273e-02 4.67928909e-02 3.19407173e-02 6.35208711e-02
      1.38808057e-01 1.65664643e-01 1.52656287e-01 1.43627197e-01
      3.21579315e-02 4.85617071e-02 4.08699811e-02 2.95625366e-02
      1.75819203e-01 8.22937042e-02 1.39647558e-01 1.54594004e-01
      1.08296968e-01 2.64343061e-02 3.52418721e-02 3.43587548e-02
      5.17954938e-02 2.88593322e-01 1.76195219e-01 1.48396417e-01
      1.77564010e-01 2.87859678e-01 1.37061656e-01 1.27290055e-01
      1.58182811e-02 1.10285347e-02 2.12506548e-01 9.96426679e-03 0.
      1.01592923e-02 3.48753817e-02 5.13585210e-02 7.75565207e-02
      6.52722865e-02 4.72134873e-02 2.80795842e-01 1.31428942e-01
      2.23027155e-01 2.46897683e-01 1.72958016e-01 3.96703929e-02
      5.39834686e-02 4.12722751e-02 3.44315395e-02 2.25123197e-01
      4.57410514e-01 1.64422080e-01 2.75401413e-01 1.98682085e-01
      1.20681547e-01 1.12077743e-01 1.39278537e-02 9.71052423e-03
      1.87110081e-01 8.77344701e-03 0. 8.94516427e-03 3.07074580e-02
      2.67025176e-02 5.93754798e-02 9.45014954e-02 7.65331388e-02
      1.67148784e-01 3.35751265e-01 1.51185960e-01 1.70581952e-01
      7.92765468e-02 3.49294208e-02 4.75319549e-02 3.63398641e-02
      3.03166602e-02 1.98218942e-01 4.02745813e-01 1.44772142e-01
      2.42488444e-01 1.74937770e-01 1.95024032e-02 3.71386260e-02
      4.40941118e-02 7.76672438e-02 1.63336128e-01 5.14059722e-01
      2.52817720e-01 1.47711977e-01 1.20653942e-01 2.85786074e-02
      6.35471418e-02 1.01141073e-01 8.19102749e-02 1.78892478e-01
      3.59340817e-01 1.61808118e-01 1.82566866e-01 8.48464370e-02
      4.52793762e-02 7.57150725e-02 7.04235658e-02 4.80709635e-02
      9.55992714e-02 2.08906919e-01 2.49326244e-01 2.29748577e-01
      2.16159761e-01 2.08726227e-02 3.97479460e-02 4.71921191e-02
      8.31240639e-02 1.74811959e-01 5.50177038e-01 2.70580441e-01
      1.58090070e-01 1.29130960e-01 1.01864211e-01 1.11819677e-01
      5.55363186e-02 7.95043558e-02 2.84352340e-02 1.10090308e-01
      6.31011948e-02 6.14495799e-02 9.27371085e-02 5.34486324e-02
      8.93755034e-02 8.31293091e-02 5.67438751e-02 1.12847187e-01
      2.46597677e-01 2.94309407e-01 2.71199554e-01 2.55159050e-01
      5.71297631e-02 8.62716734e-02 7.26070404e-02 5.25189452e-02
      3.12349349e-01 1.46197826e-01 2.48089075e-01 2.74641991e-01
      1.92393601e-01 1.20242439e-01 1.31994054e-01 6.55561239e-02
      9.38484445e-02 3.35654877e-02 1.29952684e-01 7.44858384e-02
      7.25362450e-02 1.09468639e-01 3.19819599e-02 7.64255151e-02
      6.10900484e-02 1.06238261e-01 2.30526417e-01 1.04943566e-01
      1.64345607e-01 2.74614185e-01 3.07065129e-01 5.05955890e-02
      7.64044225e-02 6.43026605e-02 4.65121306e-02 2.76624620e-01
      1.29476562e-01 2.19714075e-01 2.43230015e-01 1.70388728e-01
      3.90810892e-02 5.31815439e-02 4.06591743e-02 3.39200608e-02
      2.21779004e-01 4.50615674e-01 1.61979586e-01 2.71310329e-01
      1.95730656e-01 2.83240490e-02 6.76844046e-02 5.41029237e-02
      9.40873399e-02 2.04160139e-01 9.29407254e-02 1.45548701e-01
      2.43205383e-01 2.71944791e-01 8.09642673e-03 2.59739012e-02
      5.72216175e-02 1.34319246e-01 2.16471359e-01 1.26918107e-01
      1.13619685e-01 8.88989717e-02 1.74322248e-01 2.92738564e-02
      3.98358628e-02 3.04559283e-02 2.54079662e-02 1.66124508e-01
      3.37535590e-01 1.21331498e-01 2.03226149e-01 1.46612883e-01
      1.63446907e-02 3.11253592e-02 3.69546562e-02 6.50918260e-02
      1.36889711e-01 4.30826187e-01 2.11882979e-01 1.23795331e-01
      1.01118371e-01 6.06466318e-03 1.94558613e-02 4.28620949e-02
      1.00612402e-01 1.62148803e-01 9.50685441e-02 8.51073116e-02
      6.65901527e-02 1.30576819e-01 5.07108122e-03 1.70770604e-02
      4.67708707e-02 5.31972721e-02 2.02307049e-02 6.03875041e-01
      1.60039216e-01 1.07750602e-01 1.06016256e-01</_>
    <_>
      3.21643893e-03 3.39911655e-02 4.00064215e-02 7.81811699e-02
      2.05064014e-01 9.84556526e-02 7.95052797e-02 2.44793862e-01
      1.58212036e-01 0. 5.43697700e-02 4.02813666e-02 4.43844497e-02
      5.01282625e-02 5.43131590e-01 4.87527579e-01 4.36707884e-02 0.
      7.51624769e-03 2.38917768e-01 1.11658536e-01 8.86187106e-02
      1.99877203e-01 1.44141810e-02 0. 3.15908231e-02 2.56460207e-03
      1.94818936e-02 8.42044428e-02 9.46162343e-02 1.08078606e-01
      1.62848070e-01 8.63503441e-02 2.08635226e-01 2.47333050e-01
      1.38033494e-01 0. 3.71792391e-02 2.75452808e-02 3.03510576e-02
      3.42788026e-02 3.71405274e-01 3.33382040e-01 2.98630409e-02 0.
      1.73369597e-03 1.44669032e-02 1.44290896e-02 4.15116455e-03
      3.55153568e-02 3.41379374e-01 4.78945702e-01 6.76446110e-02
      1.90675743e-02 1.33221457e-02 5.75808398e-02 6.47006482e-02
      7.39065185e-02 1.11359082e-01 5.90482578e-02 1.42669335e-01
      1.69131756e-01 9.43903252e-02 3.16975988e-03 1.62462629e-02
      2.05105729e-02 2.08434686e-02 3.76484282e-02 3.44159007e-01
      3.79552424e-01 1.04536124e-01 1.74183682e-01 1.74063281e-03
      1.45247877e-02 1.44868232e-02 4.16777423e-03 3.56574617e-02
      3.42745274e-01 4.80862051e-01 6.79152682e-02 1.91438664e-02
      1.26601923e-02 9.21519194e-03 3.17501016e-02 4.91541438e-03
      1.13457665e-01 3.91195975e-02 9.55538377e-02 1.47835851e-01
      2.31724516e-01 3.18244263e-03 1.63112655e-02 2.05926411e-02
      2.09268667e-02 3.77990641e-02 3.45536023e-01 3.81071061e-01
      1.04954392e-01 1.74880624e-01 1.08026359e-02 2.53880471e-02
      4.93967580e-03 2.39841966e-03 1.36360511e-01 2.10283905e-01
      3.86835217e-01 1.12628751e-01 9.76497084e-02 1.68067347e-02
      1.22334063e-02 4.21490856e-02 6.52534002e-03 1.50618002e-01
      5.19322790e-02 1.26850203e-01 1.96255937e-01 3.07620317e-01
      6.85048476e-03 2.17755288e-01 1.01768218e-01 8.07691813e-02
      1.82172790e-01 1.31374244e-02 0. 2.87926197e-02 2.33743875e-03
      1.43407797e-02 3.37032899e-02 6.55754749e-03 3.18396417e-03
      1.81022108e-01 2.79157341e-01 5.13533771e-01 1.49517581e-01
      1.29632518e-01 1.22082625e-02 5.67462556e-02 1.20376758e-02
      1.23757571e-02 1.63109824e-01 3.55547696e-01 3.17744017e-01
      1.23109944e-01 1.91876501e-01 7.49078114e-03 2.38108277e-01
      1.11280218e-01 8.83184597e-02 1.99199975e-01 1.43653443e-02 0.
      3.14837880e-02 2.55591283e-03 1.94158871e-02 8.39191452e-02
      9.42956582e-02 1.07712425e-01 1.62296325e-01 8.60577747e-02
      2.07928330e-01 2.46495053e-01 1.37565807e-01 1.33493356e-02
      6.20501749e-02 1.31628048e-02 1.35324858e-02 1.78355262e-01
      3.88779789e-01 3.47442687e-01 1.34616703e-01 2.09810674e-01
      7.57960463e-03 6.97800294e-02 4.68244590e-02 8.09292048e-02
      1.10907406e-01 3.04636031e-01 3.60902578e-01 2.56977946e-01
      1.11077905e-01 1.72511917e-02 7.45629147e-02 8.37825462e-02
      9.57034603e-02 1.44201741e-01 7.64631107e-02 1.84746206e-01
      2.19013080e-01 1.22228466e-01 4.10460401e-03 2.10377052e-02
      2.65596714e-02 2.69907471e-02 4.87519205e-02 4.45660383e-01
      4.91492212e-01 1.35366529e-01 2.25554943e-01 6.73454721e-03
      6.20001853e-02 4.16039564e-02 7.19063282e-02 9.85422358e-02
      2.70671874e-01 3.20665210e-01 2.28327230e-01 9.86937210e-02
      1.16431378e-02 1.38987258e-01 9.02414396e-02 8.26403201e-02
      7.55009726e-02 1.11094326e-01 9.31612328e-02 1.19543724e-01
      8.20731223e-02 3.93321598e-03 2.01592762e-02 2.54506730e-02
      2.58637480e-02 4.67162840e-02 4.27051842e-01 4.70969975e-01
      1.29714295e-01 2.16136903e-01 1.33510977e-02 3.13773714e-02
      6.10500015e-03 2.96423351e-03 1.68529466e-01 2.59892225e-01
      4.78093952e-01 1.39199123e-01 1.20686360e-01 1.11569790e-02
      1.33183837e-01 8.64734054e-02 7.91896731e-02 7.23484308e-02
      1.06455579e-01 8.92712846e-02 1.14552177e-01 7.86461607e-02
      2.47095479e-03 2.45322153e-01 5.63578047e-02 1.17432757e-03
      1.41583443e-01 6.18519597e-02 6.65958449e-02 1.95310675e-02
      3.42358574e-02 1.44351069e-02 3.39249782e-02 6.60068030e-03
      3.20490706e-03 1.82212800e-01 2.80993521e-01 5.16911566e-01
      1.50501043e-01 1.30485192e-01 1.22885630e-02 5.71195111e-02
      1.21168550e-02 1.24571593e-02 1.64182693e-01 3.57886344e-01
      3.19833994e-01 1.23919711e-01 1.93138584e-01 2.67157773e-03
      2.65240461e-01 6.09336346e-02 1.26967416e-03 1.53078958e-01
      6.68738782e-02 7.20029250e-02 2.11168434e-02 3.70155536e-02
      1.13629410e-02 4.08752076e-02 4.64549549e-02 6.30343780e-02
      2.46762931e-01 1.12701014e-01 1.05152622e-01 1.41329318e-01
      2.10502163e-01 1.10453218e-02 5.13406955e-02 1.08909849e-02
      1.11968610e-02 1.47572234e-01 3.21678758e-01 2.87476212e-01
      1.11382678e-01 1.73598632e-01 6.27141073e-03 5.77364191e-02
      3.87428440e-02 6.69613183e-02 9.17654634e-02 2.52057731e-01
      2.98612982e-01 2.12625116e-01 9.19065401e-02 1.02133453e-02
      3.67398374e-02 4.17550765e-02 5.66571504e-02 2.21797779e-01
      1.01298980e-01 9.45142657e-02 1.27030954e-01 1.89205527e-01
      2.99283187e-03 9.00724530e-03 1.50174834e-02 1.38401100e-02
      4.09084819e-02 3.89793187e-01 4.22843337e-01 2.35461250e-01
      8.56201053e-02</_>
    <_>
      1.01108328e-02 1.78250283e-01 1.95970476e-01 6.55206293e-02
      2.13832989e-01 2.78760009e-02 2.22250577e-02 7.75308907e-02
      4.80472930e-02 9.01937298e-03 1.16219260e-01 1.08588465e-01
      1.07969671e-01 1.44301489e-01 1.04804300e-01 2.69275814e-01
      3.38823467e-01 1.08884506e-01 1.41922887e-02 1.97500437e-01
      1.78161770e-01 6.50463477e-02 2.28924081e-01 6.67767450e-02
      4.03691567e-02 1.82786971e-01 1.63026258e-01 1.01460861e-02
      9.41841602e-02 1.54515594e-01 1.03999101e-01 7.53499791e-02
      1.96235716e-01 3.18338156e-01 3.56259167e-01 3.03853482e-01
      4.81508533e-03 6.20448552e-02 5.79710789e-02 5.76407276e-02
      7.70368427e-02 5.59508614e-02 1.43755674e-01 1.80884421e-01
      5.81291206e-02 0. 6.51677372e-03 4.93212929e-03 1.19541008e-02
      1.57711301e-02 2.00308356e-02 6.04608417e-01 3.13024461e-01
      1.26384258e-01 5.41659305e-03 5.02811894e-02 8.24897513e-02
      5.55210002e-02 4.02263664e-02 1.04762472e-01 1.69948131e-01
      1.90192640e-01 1.62215337e-01 6.67178631e-03 2.68412977e-02
      2.28307601e-02 2.07373705e-02 1.62776057e-02 6.06925301e-02
      5.16093254e-01 1.82575375e-01 1.46589503e-01 0. 6.08106703e-03
      4.60237125e-03 1.11548593e-02 1.47166839e-02 1.86915901e-02
      5.64184785e-01 2.92095900e-01 1.17934301e-01 2.87412317e-03
      2.24838220e-02 1.97894499e-02 6.65665045e-02 1.95463195e-01
      5.72851077e-02 1.33128792e-01 1.59500226e-01 7.42130801e-02
      6.22571586e-03 2.50467099e-02 2.13043150e-02 1.93508863e-02
      1.51892984e-02 5.66346757e-02 4.81587648e-01 1.70368522e-01
      1.36788636e-01 1.09009761e-02 1.54860178e-02 1.29611669e-02
      2.73713917e-02 1.16865613e-01 3.33815318e-04 2.74521917e-01
      2.99549431e-01 1.46975875e-01 3.43824248e-03 2.68968400e-02
      2.36736275e-02 7.96318650e-02 2.33827785e-01 6.85287565e-02
      1.59258679e-01 1.90806165e-01 8.87792706e-02 8.45781993e-03
      1.17699347e-01 1.06174566e-01 3.87640260e-02 1.36426106e-01
      3.97952497e-02 2.40577850e-02 1.08930938e-01 9.71546397e-02
      1.30405677e-02 1.85255390e-02 1.55051239e-02 3.27437185e-02
      1.39803439e-01 3.99334996e-04 3.28403771e-01 3.58343571e-01
      1.75823599e-01 0. 1.46827470e-05 3.08098253e-02 4.16341312e-02
      1.44340470e-01 1.00543581e-01 6.37078643e-01 2.51810163e-01
      5.57865426e-02 8.95979907e-03 1.24684915e-01 1.12476133e-01
      4.10647094e-02 1.44523114e-01 4.21571359e-02 2.54856385e-02
      1.15396090e-01 1.02920860e-01 6.40537217e-03 5.94598353e-02
      9.75479558e-02 6.56561553e-02 4.75695431e-02 1.23886473e-01
      2.00971529e-01 2.24911615e-01 1.91827148e-01 0. 1.55541820e-05
      3.26384194e-02 4.41051573e-02 1.52907223e-01 1.06510937e-01
      6.74889863e-01 2.66755342e-01 5.90975247e-02 7.90646067e-04
      4.00283560e-02 7.94887990e-02 7.37312436e-02 1.31041110e-01
      1.45963520e-01 2.85916984e-01 1.88373148e-01 1.51976302e-01
      6.82549272e-03 6.33597299e-02 1.03946008e-01 6.99624568e-02
      5.06895706e-02 1.32012039e-01 2.14153007e-01 2.39663288e-01
      2.04408854e-01 8.40717182e-03 3.38229351e-02 2.87692267e-02
      2.61313282e-02 2.05115434e-02 7.64791444e-02 6.50333285e-01
      2.30064705e-01 1.84718609e-01 8.42503563e-04 4.26537655e-02
      8.47023726e-02 7.85671920e-02 1.39635935e-01 1.55537084e-01
      3.04669946e-01 2.00728312e-01 1.61944255e-01 3.43776122e-03
      1.88546091e-01 1.74513102e-01 4.19153944e-02 2.87527479e-02
      4.88325618e-02 5.71100600e-02 3.67499478e-02 4.88395765e-02
      8.16974882e-03 3.28677595e-02 2.79567689e-02 2.53933668e-02
      1.99322868e-02 7.43193403e-02 6.31967545e-01 2.23567560e-01
      1.79502070e-01 1.43048996e-02 2.03216597e-02 1.70084033e-02
      3.59183438e-02 1.53357908e-01 4.38051997e-04 3.60243738e-01
      3.93086314e-01 1.92870349e-01 3.34067713e-03 1.83221459e-01
      1.69584766e-01 4.07316796e-02 2.79407557e-02 4.74535078e-02
      5.54972440e-02 3.57121117e-02 4.74603213e-02 1.10277142e-02
      1.18861586e-01 1.09729514e-01 3.00983693e-02 1.96831256e-01
      1.24132052e-01 7.06075728e-02 2.89270282e-02 4.36237529e-02
      1.17711965e-02 1.67222600e-02 1.39958514e-02 2.95564383e-02
      1.26194954e-01 3.60463659e-04 2.96436876e-01 3.23462337e-01
      1.58708885e-01 0. 1.32535260e-05 2.78107896e-02 3.75814550e-02
      1.30290344e-01 9.07566473e-02 5.75065255e-01 2.27298900e-01
      5.03562689e-02 9.07447096e-03 9.78086591e-02 9.02940705e-02
      2.47673057e-02 1.61968246e-01 1.02145612e-01 5.81014641e-02
      2.38034334e-02 3.58970538e-02 6.48368243e-03 1.32401604e-02
      1.35542424e-02 2.05521397e-02 1.06863126e-01 2.65290365e-02
      2.46306717e-01 4.61836368e-01 7.33254552e-02 0. 1.28901320e-05
      2.70482562e-02 3.65510248e-02 1.26717955e-01 8.82682279e-02
      5.59297740e-01 2.21066684e-01 4.89755683e-02 6.55227748e-04
      3.31724770e-02 6.58743158e-02 6.11028895e-02 1.08596981e-01
      1.20963544e-01 2.36946419e-01 1.56109437e-01 1.25946492e-01
      6.30590878e-03 1.28771337e-02 1.31826038e-02 1.99886281e-02
      1.03933088e-01 2.58016475e-02 2.39553332e-01 4.49173450e-01
      7.13149682e-02 1.04613986e-03 2.50513013e-02 4.54072803e-02
      3.32678854e-02 3.03375572e-02 1.31502137e-01 3.39061052e-01
      2.53206313e-01 2.15309169e-02</_>
    <_>
      1.30746132e-02 3.44653912e-02 7.50215948e-02 2.60470454e-02
      3.10422242e-01 1.85425252e-01 1.85979217e-01 3.66725713e-01
      2.89699167e-01 1.39412726e-03 1.87500969e-01 3.56232226e-01
      7.65432343e-02 3.77144255e-02 1.96058117e-03 1.14931315e-02
      5.99223375e-02 5.57966270e-02 2.16542557e-02 1.26715899e-01
      1.88070565e-01 1.38734821e-02 2.21339464e-01 7.94331133e-02
      2.20680505e-01 1.74066886e-01 1.82000682e-01 2.32878122e-02
      4.62020189e-02 1.70075208e-01 1.44498944e-01 1.33333847e-01
      1.47647411e-01 2.30485246e-01 2.29624242e-01 1.22406498e-01
      7.74421205e-04 1.04154572e-01 1.97882786e-01 4.25188616e-02
      2.09499151e-02 1.08907954e-03 6.38429821e-03 3.32861468e-02
      3.09943650e-02 0. 0. 3.81193426e-03 1.49164340e-02 8.06871802e-02
      5.43132350e-02 1.31128147e-01 7.88901448e-01 8.41283426e-02
      1.29361041e-02 2.56646741e-02 9.44747701e-02 8.02674592e-02
      7.40653798e-02 8.20163861e-02 1.28031820e-01 1.27553537e-01
      6.79953620e-02 6.47902675e-03 1.85112599e-02 3.46156545e-02
      4.82898690e-02 6.27093241e-02 9.91382450e-02 2.75183171e-01
      3.39804739e-01 1.21410407e-01 0. 0. 2.92496313e-03 1.14456378e-02
      6.19126707e-02 4.16754819e-02 1.00616895e-01 6.05337739e-01
      6.45531341e-02 1.73925259e-03 6.24104356e-03 1.16205215e-02
      1.45299966e-02 1.52143896e-01 5.24109118e-02 1.24440305e-01
      2.35882893e-01 1.54003888e-01 4.97146929e-03 1.42040094e-02
      2.65611913e-02 3.70536484e-02 4.81179506e-02 7.60704875e-02
      2.11152792e-01 2.60738045e-01 9.31603014e-02 0. 5.33208810e-03
      1.78440884e-02 6.22842461e-03 1.08438559e-01 1.99099611e-02
      1.80752009e-01 5.59362411e-01 5.18209785e-02 2.03975663e-03
      7.31935631e-03 1.36282882e-02 1.70404557e-02 1.78430960e-01
      6.14663474e-02 1.45940810e-01 2.76638180e-01 1.80612326e-01
      1.08245220e-02 6.33427054e-02 9.40126553e-02 6.93507167e-03
      1.10643096e-01 3.97069976e-02 1.10313699e-01 8.70124996e-02
      9.09784436e-02 0. 6.25335379e-03 2.09271479e-02 7.30455713e-03
      1.27174318e-01 2.33499575e-02 2.11981922e-01 6.56007767e-01
      6.07744865e-02 3.41852382e-03 6.99999556e-03 1.35126961e-02
      1.10059017e-02 1.28853336e-01 4.49359268e-02 1.35130480e-01
      3.78085494e-01 3.19577307e-01 1.32826474e-02 7.77271017e-02
      1.15361854e-01 8.50994699e-03 1.35768875e-01 4.87240031e-02
      1.35364681e-01 1.06772043e-01 1.11638606e-01 1.42846657e-02
      2.83401627e-02 1.04323566e-01 8.86351690e-02 8.17865357e-02
      9.05664191e-02 1.41378865e-01 1.40850738e-01 7.50837326e-02
      4.19483148e-03 8.58961418e-03 1.65812746e-02 1.35052167e-02
      1.58114448e-01 5.51403612e-02 1.65817067e-01 4.63944405e-01
      3.92149657e-01 4.86706616e-03 1.34673361e-02 3.86832952e-02
      5.85476421e-02 7.13977441e-02 9.18585807e-02 3.49017173e-01
      5.15268862e-01 7.88292214e-02 1.56903304e-02 3.11289411e-02
      1.14589393e-01 9.73571986e-02 8.98346379e-02 9.94784981e-02
      1.55291080e-01 1.54710978e-01 8.24722499e-02 7.85847660e-03
      2.24524923e-02 4.19856757e-02 5.85712641e-02 7.60607645e-02
      1.20245770e-01 3.33772421e-01 4.12152559e-01 1.47259906e-01
      5.34600392e-03 1.47925727e-02 4.24898788e-02 6.43089488e-02
      7.84235522e-02 1.00897811e-01 3.83361787e-01 5.65973282e-01
      8.65863115e-02 1.40525671e-02 8.32368806e-02 1.68207735e-01
      1.04897872e-01 5.41834123e-02 9.86367464e-02 1.01227276e-01
      6.21442497e-02 6.23599589e-02 6.68120990e-03 1.90889165e-02
      3.56958620e-02 4.97967899e-02 6.46662191e-02 1.02231927e-01
      2.83770472e-01 3.50408584e-01 1.25199109e-01 0. 7.16584874e-03
      2.39808578e-02 8.37044511e-03 1.45731717e-01 2.67572049e-02
      2.42914513e-01 7.51733005e-01 6.96427524e-02 1.19473729e-02
      7.07672909e-02 1.43008783e-01 8.91832784e-02 4.60662767e-02
      8.38601217e-02 8.60625654e-02 5.28345108e-02 5.30179068e-02
      8.38184543e-03 1.03546649e-01 1.66773424e-01 1.40886493e-02
      1.18911535e-01 1.42473606e-02 3.21154557e-02 1.37622422e-02
      2.27939766e-02 0. 6.22616988e-03 2.08361764e-02 7.27280369e-03
      1.26621485e-01 2.32484546e-02 2.11060420e-01 6.53156042e-01
      6.05102964e-02 3.40366340e-03 6.96956599e-03 1.34539558e-02
      1.09580588e-02 1.28293201e-01 4.47405875e-02 1.34543061e-01
      3.76441956e-01 3.18188101e-01 7.28270970e-03 8.99682716e-02
      1.44903928e-01 1.22411633e-02 1.03318311e-01 1.23790624e-02
      2.79040597e-02 1.19575588e-02 1.98049340e-02 5.20090479e-03
      1.00947069e-02 1.77223310e-02 9.45300981e-03 6.65701702e-02
      2.48534810e-02 5.37927784e-02 3.76228929e-01 1.91687539e-01
      3.35413986e-03 6.86815847e-03 1.32582001e-02 1.07986182e-02
      1.26426533e-01 4.40896079e-02 1.32585451e-01 3.70964676e-01
      3.13558429e-01 3.89165105e-03 1.07683297e-02 3.09307259e-02
      4.68140319e-02 5.70888296e-02 7.34490827e-02 2.79070199e-01
      4.12003160e-01 6.30309582e-02 5.12523111e-03 9.94782895e-03
      1.74644701e-02 9.31546744e-03 6.56015724e-02 2.44918615e-02
      5.30100912e-02 3.70754778e-01 1.88898474e-01 2.58977106e-03
      5.17074950e-03 7.69466348e-03 4.57130633e-02 2.55528595e-02
      3.11796740e-02 2.05949917e-01 4.36428964e-01 2.15895131e-01</_>
    <_>
      8.61866027e-03 3.33211049e-02 5.73175736e-02 5.47068901e-02
      2.07866445e-01 1.97735697e-01 1.43522739e-01 1.12769380e-01
      2.05493793e-01 7.34325731e-03 3.19816768e-02 3.45298439e-01
      2.84626245e-01 1.13795213e-01 1.02741905e-01 5.08591682e-02
      5.34595139e-02 1.08572520e-01 2.65396032e-02 5.17856851e-02
      2.39686742e-01 1.94290847e-01 2.34602973e-01 3.76892798e-02
      1.00624427e-01 2.66281575e-01 1.75138205e-01 1.16248559e-02
      5.96358143e-02 1.67873189e-01 2.05745146e-01 2.38776162e-01
      1.60049200e-01 2.21488267e-01 1.98777199e-01 2.83683956e-01
      3.20138130e-03 1.39427949e-02 1.50536999e-01 1.24086231e-01
      4.96103875e-02 4.47915643e-02 2.21726652e-02 2.33063158e-02
      4.73334938e-02 0. 0. 0. 2.27265712e-03 4.04326022e-02
      1.47637175e-02 4.89482060e-02 5.64074159e-01 3.68133873e-01
      5.06799528e-03 2.59989481e-02 7.31863305e-02 8.96970630e-02
      1.04097337e-01 6.97753727e-02 9.65604633e-02 8.66593048e-02
      1.23675421e-01 1.88856979e-03 7.37374835e-03 4.26688744e-03
      3.16688158e-02 3.43740582e-02 5.47144152e-02 6.65789321e-02
      5.97578824e-01 2.59446800e-01 0. 0. 0. 2.06004805e-03
      3.66500951e-02 1.33825587e-02 4.43690605e-02 5.11304557e-01
      3.33694607e-01 4.50185791e-04 1.74283094e-04 0. 2.29004975e-02
      1.24521047e-01 7.81161115e-02 2.89672557e-02 1.40334424e-02
      4.70665544e-02 1.71189243e-03 6.68392750e-03 3.86771630e-03
      2.87061706e-02 3.11583355e-02 4.95958328e-02 6.03504106e-02
      5.41674793e-01 2.35175326e-01 1.74753333e-03 9.80059151e-03
      4.77435766e-03 1.31987957e-02 8.39065313e-02 2.77167764e-02
      1.32599398e-01 4.20288801e-01 1.98314071e-01 5.88070427e-04
      2.27663200e-04 0. 2.99145523e-02 1.62659839e-01 1.02041818e-01
      3.78394611e-02 1.83316600e-02 6.14822842e-02 1.37001108e-02
      2.67324876e-02 1.23729616e-01 1.00295618e-01 1.21105298e-01
      1.94557291e-02 5.19437231e-02 1.37458235e-01 9.04087648e-02
      2.28277477e-03 1.28023550e-02 6.23666681e-03 1.72413755e-02
      1.09605752e-01 3.62059772e-02 1.73212454e-01 5.49016476e-01
      2.59054482e-01 4.28271107e-03 9.72487591e-03 7.27473060e-04
      7.30478903e-03 1.35052428e-01 2.11759526e-02 1.03224754e-01
      6.07430339e-01 2.73426622e-01 1.53910946e-02 3.00320387e-02
      1.39001384e-01 1.12674959e-01 1.36053145e-01 2.18571201e-02
      5.83550595e-02 1.54424503e-01 1.01567782e-01 6.74159499e-03
      3.45845595e-02 9.73545834e-02 1.19317643e-01 1.38473302e-01
      9.28172320e-02 1.28447548e-01 1.15276732e-01 1.64516643e-01
      4.81131999e-03 1.09252026e-02 8.17263965e-04 8.20640847e-03
      1.51721746e-01 2.37896685e-02 1.15965627e-01 6.82404518e-01
      3.07175279e-01 4.53094114e-03 1.99505836e-02 7.43324161e-02
      8.51080194e-02 1.10628702e-01 7.15507343e-02 1.72382727e-01
      3.19547176e-01 2.02583924e-01 6.15892559e-03 3.15954499e-02
      8.89403224e-02 1.09005138e-01 1.26505196e-01 8.47951248e-02
      1.17345944e-01 1.05313480e-01 1.50297627e-01 2.29510083e-03
      8.96101166e-03 5.18537220e-03 3.84858027e-02 4.17733751e-02
      6.64921701e-02 8.09106231e-02 7.26212859e-01 3.15294981e-01
      4.13933629e-03 1.82262734e-02 6.79079369e-02 7.77522177e-02
      1.01067163e-01 6.53666705e-02 1.57483846e-01 2.91929036e-01
      1.85074791e-01 9.66339093e-03 4.09528725e-02 8.48193094e-02
      1.15372218e-01 6.26258925e-02 5.67391962e-02 8.88229758e-02
      2.18972549e-01 1.11352466e-01 1.84484792e-03 7.20304064e-03
      4.16810578e-03 3.09356600e-02 3.35782766e-02 5.34477383e-02
      6.50375783e-02 5.83744407e-01 2.53440440e-01 1.88325706e-03
      1.05617633e-02 5.14516234e-03 1.42238913e-02 9.04232040e-02
      2.98694242e-02 1.42897844e-01 4.52930868e-01 2.13716298e-01
      7.76762655e-03 3.29187363e-02 6.81794584e-02 9.27385017e-02
      5.03399447e-02 4.56080996e-02 7.13976845e-02 1.76014528e-01
      8.95073414e-02 6.54046936e-03 2.74437144e-02 3.80313657e-02
      8.10167287e-03 8.68066475e-02 0. 5.36504667e-03 3.94699305e-01
      2.76326656e-01 1.68748386e-03 9.46381968e-03 4.61029913e-03
      1.27452537e-02 8.10233057e-02 2.67643612e-02 1.28042951e-01
      4.05846655e-01 1.91499516e-01 3.16588674e-03 7.18887057e-03
      5.37766202e-04 5.39988186e-03 9.98341143e-02 1.56537909e-02
      7.63063058e-02 4.49027598e-01 2.02123776e-01 5.86055778e-03
      2.45908145e-02 3.40778306e-02 7.25946669e-03 7.77826980e-02 0.
      4.80732555e-03 3.53668511e-01 2.47601241e-01 4.76507063e-04
      2.32964128e-04 5.05630719e-03 9.99963004e-03 7.56751969e-02 0.
      1.80061143e-02 2.09302425e-01 5.21306276e-01 3.67066660e-03
      8.33508838e-03 6.23509462e-04 6.26085699e-03 1.15752004e-01
      1.81496833e-02 8.84728432e-02 5.20622075e-01 2.34351069e-01
      3.45675903e-03 1.52207576e-02 5.67099079e-02 6.49308637e-02
      8.44011754e-02 5.45876995e-02 1.31514743e-01 2.43789881e-01
      1.54555932e-01 5.52482961e-04 2.70108721e-04 5.86250192e-03
      1.15940049e-02 8.77411067e-02 0. 2.08770689e-02 2.42674321e-01
      6.04425132e-01 0. 6.29083440e-03 8.68968442e-02 7.89148360e-02
      5.15242368e-02 6.72488585e-02 6.94463179e-02 2.54322946e-01
      1.04573540e-01</_>
    <_>
      6.08976819e-02 5.07037193e-02 2.96926256e-02 6.06108494e-02
      2.79238313e-01 5.36085367e-02 3.59988026e-02 1.43687040e-01
      1.16369538e-01 4.10227804e-03 2.39392719e-03 6.15831353e-02
      1.47935018e-01 3.92269373e-01 5.64695120e-01 4.93466556e-02
      5.41157536e-02 1.39745459e-01 7.97572657e-02 7.17064738e-02
      2.18695197e-02 4.53765355e-02 1.98806956e-01 4.22750078e-02
      1.97324734e-02 0. 1.07563600e-01 2.65911352e-02 8.25510770e-02
      6.97208568e-02 9.66406837e-02 1.35570019e-01 1.29683092e-01
      2.19563887e-01 2.66962647e-01 3.25235516e-01 2.78781448e-03
      1.62685825e-03 4.18504924e-02 1.00533269e-01 2.66577333e-01
      3.83753926e-01 3.35348621e-02 3.67758311e-02 9.49678272e-02
      8.95329518e-04 7.24507670e-04 1.32309180e-02 1.00592477e-02
      2.99181372e-01 5.68225086e-01 1.23915657e-01 2.79824119e-02 0.
      1.80707294e-02 5.60998283e-02 4.73807044e-02 6.56748042e-02
      9.21302959e-02 8.81296694e-02 1.49210602e-01 1.81421727e-01
      2.21022636e-01 1.35384444e-02 3.21562998e-02 4.62330356e-02
      6.21020049e-02 1.21533267e-01 2.15461880e-01 2.43353993e-01
      2.28830695e-01 1.38543054e-01 9.22238687e-04 7.46282807e-04
      1.36285741e-02 1.03615783e-02 3.08173269e-01 5.85303128e-01
      1.27639949e-01 2.88234241e-02 0. 5.29336743e-03 6.80604158e-03 0.
      0. 2.52859652e-01 3.92422408e-01 1.93005607e-01 1.33070961e-01
      1.21837601e-01 1.39453430e-02 3.31227593e-02 4.76225726e-02
      6.39684796e-02 1.25185952e-01 2.21937597e-01 2.50667989e-01
      2.35708222e-01 1.42706975e-01 4.91148829e-02 2.88341939e-02 0.
      1.12435138e-02 1.36785075e-01 0. 6.94900053e-03 1.06674500e-01
      1.11246362e-01 7.55201560e-03 9.71013866e-03 0. 0. 3.60753357e-01
      5.59866667e-01 2.75359929e-01 1.89851552e-01 1.73824981e-01
      7.96526670e-02 7.16124400e-02 2.18408406e-02 4.53170277e-02
      1.98546231e-01 4.22195643e-02 1.97065957e-02 0. 1.07422531e-01
      7.00719133e-02 4.11375724e-02 0. 1.60410535e-02 1.95150435e-01 0.
      9.91409738e-03 1.52191877e-01 1.58714518e-01 6.19652979e-02
      2.89779659e-02 0. 0. 1.91599101e-01 0. 2.83806827e-02
      3.92646194e-01 2.39328519e-01 8.36780444e-02 7.52314925e-02
      2.29446031e-02 4.76071984e-02 2.08580092e-01 4.43532020e-02
      2.07024999e-02 0. 1.12851307e-01 2.78983265e-02 8.66091922e-02
      7.31482580e-02 1.01391435e-01 1.42234489e-01 1.36058167e-01
      2.30357409e-01 2.80086219e-01 3.41223717e-01 6.50968179e-02
      3.04424167e-02 0. 0. 2.01281875e-01 0. 2.98149474e-02
      4.12489206e-01 2.51423389e-01 2.33803336e-02 4.55356278e-02
      1.32852346e-01 1.09974466e-01 1.80294380e-01 2.26952374e-01
      3.08133960e-01 2.76062638e-01 2.18736187e-01 2.36886647e-02
      7.35404715e-02 6.21106960e-02 8.60921815e-02 1.20772302e-01
      1.15527943e-01 1.95598081e-01 2.37823173e-01 2.89735466e-01
      1.77473556e-02 4.21532393e-02 6.06062338e-02 8.14086422e-02
      1.59316257e-01 2.82445937e-01 3.19009304e-01 2.99970925e-01
      1.81614131e-01 1.98524036e-02 3.86646204e-02 1.12805858e-01
      9.33800861e-02 1.53089225e-01 1.92706838e-01 2.61638701e-01
      2.34406710e-01 1.85730428e-01 3.48327495e-02 8.30173269e-02
      5.36498949e-02 7.76179433e-02 1.13403656e-01 5.32757379e-02
      1.42569408e-01 2.84561306e-01 2.40767509e-01 2.20183022e-02
      5.22975214e-02 7.51912743e-02 1.00999832e-01 1.97656110e-01
      3.50417286e-01 3.95779699e-01 3.72159690e-01 2.25320041e-01
      7.75474906e-02 4.55263108e-02 0. 1.77523829e-02 2.15969950e-01 0.
      1.09717771e-02 1.68428361e-01 1.75646886e-01 4.32153381e-02
      1.02995656e-01 6.65608793e-02 9.62968916e-02 1.40694529e-01
      6.60966784e-02 1.76879093e-01 3.53041708e-01 2.98708797e-01
      1.09658986e-01 6.38207495e-02 1.26703475e-02 0. 2.12039724e-01
      2.98082810e-02 3.14954016e-03 2.03063749e-02 2.72431988e-02
      7.39625916e-02 4.34217006e-02 0. 1.69317182e-02 2.05985993e-01 0.
      1.04645696e-02 1.60642192e-01 1.67527005e-01 6.54058680e-02
      3.05869430e-02 0. 0. 2.02237472e-01 0. 2.99564973e-02
      4.14447546e-01 2.52617031e-01 1.04589626e-01 6.08704202e-02
      1.20846182e-02 0. 2.02237472e-01 2.84302924e-02 3.00394208e-03
      1.93676446e-02 2.59837899e-02 1.41780647e-02 1.45354345e-02 0. 0.
      1.91931009e-01 2.74712920e-01 3.88215214e-01 3.74978989e-01
      3.89561772e-01 4.83967438e-02 2.26326548e-02 0. 0. 1.49644598e-01
      0. 2.21661590e-02 3.06668371e-01 1.86922699e-01 1.73822939e-02
      3.38538215e-02 9.87701342e-02 8.17613900e-02 1.34041280e-01
      1.68729544e-01 2.29084641e-01 2.05240950e-01 1.62621155e-01
      1.04909884e-02 1.07554216e-02 0. 0. 1.42018393e-01 2.03272432e-01
      2.87257880e-01 2.77463824e-01 2.88254291e-01 1.45990588e-03
      3.65803274e-03 2.89377142e-02 6.42658174e-02 3.28181356e-01
      4.46998090e-01 1.91064566e-01 8.11970308e-02 0.</_>
    <_>
      4.25660089e-02 8.39259326e-02 5.80488257e-02 5.39766848e-02
      1.79572180e-01 9.49593820e-03 5.73909208e-02 1.44297078e-01
      2.31226265e-01 6.56108512e-03 1.44704729e-02 3.14134955e-02
      7.61545151e-02 5.42440377e-02 7.84144521e-01 2.10373119e-01
      7.56248981e-02 4.94055450e-02 8.21684375e-02 1.21530198e-01
      5.49494065e-02 2.19584629e-02 1.63757682e-01 2.17617042e-02
      3.91177014e-02 5.14514782e-02 1.02155857e-01 3.31262387e-02
      5.06931581e-02 7.99177736e-02 1.49260849e-01 1.55261591e-01
      1.35367274e-01 1.39960706e-01 1.31625026e-01 1.38057068e-01
      4.27915715e-03 9.43768024e-03 2.04879660e-02 4.96681780e-02
      3.53781059e-02 5.11421144e-01 1.37205914e-01 4.93227616e-02
      3.22224274e-02 2.81219516e-04 3.33554271e-05 0. 0. 0.
      6.28813505e-01 2.19103560e-01 6.78301975e-02 5.19649051e-02
      2.16050204e-02 3.30622122e-02 5.21225818e-02 9.73483175e-02
      1.01262026e-01 8.82868916e-02 9.12827402e-02 8.58461931e-02
      9.00411904e-02 3.34341661e-03 1.99527852e-02 1.64327119e-02
      4.33952585e-02 1.17609814e-01 3.37581635e-01 1.76878646e-01
      1.56478211e-01 1.39475122e-01 2.61512905e-04 3.10180258e-05 0. 0.
      0. 5.84749043e-01 2.03749746e-01 6.30769581e-02 4.83234338e-02
      2.28439667e-03 3.11137876e-03 3.61107872e-03 2.13222206e-02
      1.32068023e-01 1.43734545e-01 2.28502564e-02 6.91216961e-02
      5.35968900e-01 3.10912472e-03 1.85545832e-02 1.52811799e-02
      4.03543115e-02 1.09368242e-01 3.13925415e-01 1.64483771e-01
      1.45512909e-01 1.29701316e-01 2.78561506e-02 3.30770053e-02
      9.22855979e-04 0. 9.98236090e-02 2.18800873e-01 1.34378284e-01
      1.13309897e-01 1.03488214e-01 3.06377141e-03 4.17289743e-03
      4.84308181e-03 2.85967886e-02 1.77126065e-01 1.92772910e-01
      3.06461472e-02 9.27041620e-02 7.18827069e-01 6.68374822e-02
      9.88551378e-02 4.46969643e-02 1.78614613e-02 1.33203834e-01
      1.77014135e-02 3.18191350e-02 4.18516770e-02 8.30956548e-02
      3.73599194e-02 4.43619862e-02 1.23770966e-03 0. 1.33880734e-01
      2.93449819e-01 1.80224538e-01 1.51968181e-01 1.38795599e-01
      2.69040614e-02 6.08363636e-02 1.65414196e-02 2.22728159e-02
      1.42439663e-01 1.41417935e-01 1.01424336e-01 2.57449597e-01
      2.36173570e-01 9.66852978e-02 1.43001184e-01 6.46574274e-02
      2.58379094e-02 1.92689076e-01 2.56063882e-02 4.60287035e-02
      6.05415106e-02 1.20203935e-01 3.89787145e-02 5.96492179e-02
      9.40370038e-02 1.75631061e-01 1.82691962e-01 1.59282878e-01
      1.64687842e-01 1.54879481e-01 1.62447885e-01 3.89186889e-02
      8.80042464e-02 2.39283722e-02 3.22192572e-02 2.06049368e-01
      2.04571381e-01 1.46717712e-01 3.72419655e-01 3.41642320e-01
      2.51252707e-02 6.13986850e-02 6.07624762e-02 1.16711892e-01
      1.57807201e-01 3.25237095e-01 3.18258911e-01 2.86721408e-01
      1.35318115e-01 3.25252600e-02 4.97734770e-02 7.84678981e-02
      1.46552950e-01 1.52444825e-01 1.32911429e-01 1.37421519e-01
      1.29237086e-01 1.35552436e-01 5.03334356e-03 3.00379042e-02
      2.47386117e-02 6.53293580e-02 1.77055597e-01 5.08211970e-01
      2.66281813e-01 2.35569984e-01 2.09972709e-01 2.09654402e-02
      5.12332991e-02 5.07024229e-02 9.73886475e-02 1.31680071e-01
      2.71389693e-01 2.65566796e-01 2.39250779e-01 1.12914354e-01
      3.74992043e-02 9.61890966e-02 7.98521191e-02 8.33469778e-02
      4.70052734e-02 8.20362344e-02 1.76429629e-01 2.06270918e-01
      2.34128162e-01 5.11019863e-03 3.04965582e-02 2.51163505e-02
      6.63268790e-02 1.79759085e-01 5.15971959e-01 2.70347714e-01
      2.39166945e-01 2.13178813e-01 4.57847379e-02 5.43658026e-02
      1.51681842e-03 0. 1.64071411e-01 3.59623998e-01 2.20865935e-01
      1.86237663e-01 1.70094594e-01 3.80717851e-02 9.76578221e-02
      8.10713917e-02 8.46196190e-02 4.77230027e-02 8.32888633e-02
      1.79123566e-01 2.09420502e-01 2.37703115e-01 8.93186629e-02
      1.59385562e-01 2.72295233e-02 1.60087347e-02 2.11210921e-01
      1.28827011e-02 1.59005933e-02 1.58362854e-02 0. 4.41680476e-02
      5.24461083e-02 1.46325852e-03 0. 1.58277929e-01 3.46925437e-01
      2.13067010e-01 1.79661483e-01 1.64088443e-01 3.18068117e-02
      7.19226226e-02 1.95557773e-02 2.63316091e-02 1.68396547e-01
      1.67188644e-01 1.19906977e-01 3.04364830e-01 2.79211670e-01
      8.61647576e-02 1.53757542e-01 2.62680296e-02 1.54434545e-02
      2.03752905e-01 1.24278041e-02 1.53391333e-02 1.52770942e-02 0.
      2.34826817e-03 7.62334606e-03 1.40078843e-03 3.18780281e-02
      2.49623314e-01 4.19670939e-01 2.96560377e-01 2.92070180e-01
      9.91911367e-02 2.51434129e-02 5.68551309e-02 1.54589210e-02
      2.08152458e-02 1.33118168e-01 1.32163301e-01 9.47869569e-02
      2.40601644e-01 2.20717967e-01 1.62321776e-02 3.96666117e-02
      3.92555892e-02 7.54017010e-02 1.01951323e-01 2.10119382e-01
      2.05611110e-01 1.85236320e-01 8.74222443e-02 1.85631553e-03
      6.02628617e-03 1.10732892e-03 2.51997113e-02 1.97328240e-01
      3.31751585e-01 2.34432191e-01 2.30882660e-01 7.84109980e-02
      9.98397474e-04 8.37860256e-03 5.02837123e-03 5.40067181e-02
      7.99359456e-02 6.08603954e-01 2.27085382e-01 2.78820004e-02
      2.47535277e-02</_>
    <_>
      0. 0. 4.62269731e-04 1.41491562e-01 2.53963172e-01 1.77572340e-01
      1.31181389e-01 5.96182793e-02 1.41221300e-01 0. 1.18115055e-03
      2.80974787e-02 3.35478395e-01 3.07198048e-01 0. 0. 0. 0.
      9.77504347e-03 1.94476042e-02 1.33151347e-02 6.05904497e-02
      1.57973185e-01 3.15254070e-02 2.07328107e-02 7.11319298e-02
      7.16934562e-01 6.55637588e-03 4.44339663e-02 7.23505616e-02
      1.24702305e-01 1.41390294e-01 1.16146468e-01 9.69006941e-02
      1.03989892e-01 9.64014605e-02 0. 1.49593968e-03 3.55857536e-02
      4.24886942e-01 3.89069587e-01 0. 0. 0. 0. 2.45413813e-03
      2.02655341e-04 9.02825594e-03 3.78063679e-01 3.47995222e-01
      1.08199650e-02 3.59526388e-02 1.06077112e-01 3.33718695e-02
      8.30371957e-03 5.62760904e-02 9.16327462e-02 1.57936797e-01
      1.79072306e-01 1.47100732e-01 1.22725755e-01 1.31704301e-01
      1.22093469e-01 8.98403861e-03 4.05322090e-02 4.74933088e-02
      4.89549972e-02 1.67180061e-01 1.58059672e-01 2.72807688e-01
      2.40534008e-01 2.44430453e-01 1.30321516e-03 1.07615590e-04
      4.79425350e-03 2.00762257e-01 1.84795082e-01 5.74570056e-03
      1.90918446e-02 5.63298799e-02 1.77213848e-02 8.76896258e-04
      1.46929326e-03 0. 9.36465245e-03 1.01725049e-01 7.56857321e-02
      1.06034264e-01 1.59617960e-01 3.21420580e-01 4.77077253e-03
      2.15237234e-02 2.52202600e-02 2.59964559e-02 8.87772366e-02
      8.39340538e-02 1.44868419e-01 1.27730206e-01 1.29799321e-01
      3.98363173e-03 5.05428715e-03 0. 0. 7.49949589e-02 0. 0.
      4.19264212e-02 8.28938603e-01 6.91662251e-04 1.15892233e-03 0.
      7.38647953e-03 8.02368298e-02 5.96980117e-02 8.36357772e-02
      1.25900537e-01 2.53524274e-01 5.18549839e-03 1.03166318e-02
      7.06345774e-03 3.21422294e-02 8.38021487e-02 1.67237055e-02
      1.09984120e-02 3.77343111e-02 3.80321890e-01 3.14213638e-03
      3.98662873e-03 0. 0. 5.91531582e-02 0. 0. 3.30699608e-02
      6.53835118e-01 9.86640807e-04 2.79353838e-03 3.07180744e-04
      9.13338643e-03 6.23593368e-02 7.81104667e-03 7.39998044e-03
      6.09932579e-02 5.55137157e-01 7.00727897e-03 1.39410933e-02
      9.54500772e-03 4.34345081e-02 1.13243707e-01 2.25991141e-02
      1.48623986e-02 5.09912111e-02 5.13937414e-01 4.69996454e-03
      3.18526663e-02 5.18647879e-02 8.93933475e-02 1.01356201e-01
      8.32600594e-02 6.94636479e-02 7.45455697e-02 6.91057742e-02
      1.33326964e-03 3.77497030e-03 4.15100163e-04 1.23421475e-02
      8.42675567e-02 1.05552403e-02 9.99975763e-03 8.24215412e-02
      7.50169158e-01 8.57022870e-03 2.45873090e-02 2.19207276e-02
      2.55074333e-02 6.03452548e-02 6.37874454e-02 1.16190411e-01
      1.95238724e-01 1.87735096e-01 8.99914652e-03 6.09891489e-02
      9.93068814e-02 1.71163812e-01 1.94069400e-01 1.59420252e-01
      1.33003891e-01 1.42734379e-01 1.32318661e-01 9.73644108e-03
      4.39267382e-02 5.14708199e-02 5.30549213e-02 1.81181207e-01
      1.71296984e-01 2.95655012e-01 2.60678470e-01 2.64901221e-01
      1.64096449e-02 4.70779724e-02 4.19721976e-02 4.88397591e-02
      1.15544662e-01 1.22135520e-01 2.22472861e-01 3.73828769e-01
      3.59461367e-01 1.00081610e-02 4.53599282e-02 1.00015044e-01
      1.61789685e-01 1.67170033e-01 1.47816211e-01 1.08727276e-01
      1.70820668e-01 2.46389061e-01 4.23351349e-03 1.90998372e-02
      2.23800875e-02 2.30688751e-02 7.87796155e-02 7.44818524e-02
      1.28554106e-01 1.13345914e-01 1.15182020e-01 3.53501644e-03
      4.48510051e-03 0. 0. 6.65494278e-02 0. 0. 3.72048914e-02
      7.35587955e-01 4.35166061e-03 1.97230056e-02 4.34876606e-02
      7.03479722e-02 7.26874024e-02 6.42721429e-02 4.72758375e-02
      7.42747411e-02 1.07132718e-01 4.05242527e-03 7.16177234e-03
      4.97205183e-03 2.53256410e-03 7.47000277e-02 0. 2.23637335e-02
      5.85481301e-02 5.93090534e-01 3.00874980e-03 3.81739251e-03 0. 0.
      5.66420518e-02 0. 0. 3.16661075e-02 6.26079142e-01 9.44756961e-04
      2.67494982e-03 2.94140627e-04 8.74566566e-03 5.97121231e-02
      7.47946044e-03 7.08584441e-03 5.84040359e-02 5.31571031e-01
      3.44913057e-03 6.09558169e-03 4.23185015e-03 2.15553492e-03
      6.35792464e-02 0. 1.90343894e-02 4.98319231e-02 5.04795671e-01
      5.58143156e-03 8.23328737e-03 2.13512708e-03 1.29375970e-02
      2.82778740e-02 1.25674251e-02 5.62226810e-02 1.12269402e-01
      1.87838048e-01 1.44887844e-03 4.10230085e-03 4.51093831e-04
      1.34123443e-02 9.15744528e-02 1.14704939e-02 1.08668441e-02
      8.95683765e-02 8.15216839e-01 9.31335986e-03 2.67192926e-02
      2.38214899e-02 2.77192015e-02 6.55778348e-02 6.93185031e-02
      1.26265362e-01 2.12168023e-01 2.04013750e-01 8.55967868e-03
      1.26265623e-02 3.27442889e-03 1.98410861e-02 4.33669202e-02
      1.92733929e-02 8.62230510e-02 1.72176242e-01 2.88068265e-01
      1.18460460e-03 2.42641708e-03 9.25527699e-03 1.88883215e-01
      1.80871055e-01 5.37743270e-02 8.85361135e-02 4.27137390e-02
      2.74233073e-02</_>
    <_>
      5.40979467e-02 1.17313862e-01 5.11315018e-02 7.59313256e-03
      2.05360249e-01 9.60836001e-03 0. 1.53192371e-01 3.63002062e-01
      6.17840840e-03 3.16533595e-02 6.49360269e-02 8.99015218e-02
      5.41464269e-01 4.94922698e-01 4.67757136e-02 0. 0. 1.44507661e-01
      9.15811136e-02 0. 0. 1.89277157e-01 0. 0. 2.03548763e-02
      2.17966326e-02 5.03494926e-02 6.26327097e-02 1.30969256e-01
      1.42092019e-01 5.73217496e-02 1.51585266e-01 4.77506034e-02
      9.01050642e-02 2.88144857e-01 4.41446947e-03 2.26163082e-02
      4.63967547e-02 6.42345920e-02 3.86875927e-01 3.53622019e-01
      3.34212221e-02 0. 0. 4.92162944e-04 9.03154432e-05 0.
      1.87850725e-02 4.42902952e-01 4.92545396e-01 2.30370555e-02
      6.26697615e-02 2.68643759e-02 3.59746851e-02 4.47510406e-02
      9.35774669e-02 1.01524681e-01 4.09563631e-02 1.08307593e-01
      3.41177806e-02 6.43800274e-02 2.05879346e-01 1.15109570e-02
      3.26437652e-02 3.79569642e-02 6.76129311e-02 2.55915314e-01
      2.40570441e-01 1.22519284e-01 1.30532861e-01 1.64206967e-01
      4.66246187e-04 8.55595354e-05 0. 1.77958701e-02 4.19580162e-01
      4.66608495e-01 2.18239501e-02 5.93696423e-02 2.54497267e-02
      6.71047950e-04 5.31677715e-03 1.69583615e-02 3.97438295e-02
      3.16297084e-01 1.93206653e-01 2.35040724e-01 1.94624171e-01
      6.61292002e-02 1.09048029e-02 3.09247822e-02 3.59581932e-02
      6.40525073e-02 2.42439106e-01 2.27902278e-01 1.16067551e-01
      1.23659149e-01 1.55560017e-01 1.23463068e-02 5.05169332e-02
      2.50494983e-02 2.03933846e-02 2.74683207e-01 1.52664036e-01
      1.32494137e-01 2.55131125e-01 9.59071070e-02 8.98849161e-04
      7.12166773e-03 2.27152295e-02 5.32356985e-02 4.23670739e-01
      2.58794665e-01 3.14830184e-01 2.60693401e-01 8.85781348e-02
      1.31018445e-01 8.30323771e-02 0. 0. 1.71608880e-01 0. 0.
      1.84548292e-02 1.97620019e-02 1.65375173e-02 6.76659569e-02
      3.35530713e-02 2.73163430e-02 3.67930144e-01 2.04489022e-01
      1.77472025e-01 3.41740698e-01 1.28464773e-01 6.80833235e-02
      4.86993007e-02 2.54504811e-02 4.16140771e-03 2.33142972e-01
      1.90892726e-01 1.29995644e-01 1.78425699e-01 1.58302590e-01
      1.43650785e-01 9.10380632e-02 0. 0. 1.88154802e-01 0. 0.
      2.02341788e-02 2.16673855e-02 5.00509329e-02 6.22613169e-02
      1.30192652e-01 1.41249463e-01 5.69818504e-02 1.50686413e-01
      4.74674553e-02 8.95707682e-02 2.86436230e-01 7.46476725e-02
      5.33947125e-02 2.79043261e-02 4.56263544e-03 2.55621791e-01
      2.09297925e-01 1.42529353e-01 1.95628867e-01 1.73565567e-01
      3.95594537e-03 1.75965317e-02 3.42726298e-02 9.79381874e-02
      3.82990062e-01 4.13526952e-01 2.20259219e-01 3.23647082e-01
      2.90028960e-01 4.02086526e-02 5.00179231e-02 1.04590878e-01
      1.13473423e-01 4.57766391e-02 1.21054634e-01 3.81332040e-02
      7.19571039e-02 2.30109900e-01 1.28657166e-02 3.64857092e-02
      4.24242318e-02 7.55704939e-02 2.86034763e-01 2.68883914e-01
      1.36938944e-01 1.45895675e-01 1.83532968e-01 3.17802723e-03
      1.41362567e-02 2.75330804e-02 7.86791071e-02 3.07676882e-01
      3.32208842e-01 1.76946282e-01 2.60003388e-01 2.32996136e-01
      7.17386091e-03 2.75745038e-02 7.65751451e-02 1.01652451e-01
      1.63960740e-01 4.52693671e-01 1.40318140e-01 1.25377074e-01
      9.62939858e-02 1.38957491e-02 3.94067615e-02 4.58207279e-02
      8.16206858e-02 3.08934778e-01 2.90410817e-01 1.47902310e-01
      1.57576114e-01 1.98226675e-01 1.57326236e-02 6.43726066e-02
      3.19200195e-02 2.59868372e-02 3.50022703e-01 1.94536403e-01
      1.68834329e-01 3.25107932e-01 1.22212298e-01 7.74820196e-03
      2.97821239e-02 8.27057660e-02 1.09790772e-01 1.77087486e-01
      4.88936424e-01 1.51552036e-01 1.35414794e-01 1.04003303e-01
      8.57702345e-02 7.94098079e-02 7.98573121e-02 2.27530189e-02
      1.98714197e-01 4.67431471e-02 2.90848198e-03 3.26787680e-03
      5.91745302e-02 1.39550837e-02 5.70995100e-02 2.83135567e-02
      2.30507310e-02 3.10475618e-01 1.72556832e-01 1.49758697e-01
      2.88375825e-01 1.08404219e-01 5.74517027e-02 4.10946086e-02
      2.14762352e-02 3.51157854e-03 1.96736291e-01 1.61083683e-01
      1.09696038e-01 1.50563449e-01 1.33582696e-01 7.60795400e-02
      7.04377368e-02 7.08346814e-02 2.01822836e-02 1.76262602e-01
      4.14618999e-02 2.57986924e-03 2.89865769e-03 5.24887368e-02 0. 0.
      0. 1.51780446e-03 1.84627712e-01 1.74085528e-01 2.85364330e-01
      6.15333557e-01 2.29874641e-01 4.93051708e-02 3.52674797e-02
      1.84309501e-02 3.01364413e-03 1.68839499e-01 1.38242349e-01
      9.41413715e-02 1.29213870e-01 1.14640944e-01 2.61292211e-03
      1.16225993e-02 2.26372480e-02 6.46886751e-02 2.52966911e-01
      2.73136675e-01 1.45482346e-01 2.13770539e-01 1.91565603e-01 0. 0.
      0. 1.30258291e-03 1.58447891e-01 1.49400577e-01 2.44900256e-01
      5.28080523e-01 1.97278902e-01 2.53011310e-03 7.57806096e-03
      2.88494546e-02 2.46318430e-02 2.41296411e-01 3.65379602e-01
      6.26719296e-02 9.54828411e-02 1.76624194e-01</_>
    <_>
      3.10140718e-02 2.20669415e-02 1.39127104e-02 2.18146164e-02
      1.54630184e-01 0. 0. 0. 2.04028293e-01 9.22632404e-03
      5.47725558e-02 9.94781405e-02 7.27569237e-02 4.56060112e-01
      1.88374028e-01 4.64781225e-02 6.51548579e-02 6.45374954e-02
      1.09832129e-02 5.39190834e-03 0. 0. 1.76720217e-01 0. 0.
      5.01702726e-02 4.69800830e-01 2.32242160e-02 6.65006116e-02
      2.87145339e-02 7.09090531e-02 7.99129084e-02 1.04417600e-01
      1.93693861e-01 2.58591145e-01 5.22420585e-01 7.77466223e-03
      4.61546890e-02 8.38263407e-02 6.13094158e-02 3.84304017e-01
      1.58735424e-01 3.91652957e-02 5.49034514e-02 5.43832220e-02
      3.96628724e-03 9.34343599e-03 1.63879544e-02 5.37715591e-02
      4.97791916e-01 1.52249277e-01 1.58675626e-01 1.21069752e-01
      1.15392469e-01 1.95701383e-02 5.60374632e-02 2.41966154e-02
      5.97522818e-02 6.73394799e-02 8.79886225e-02 1.63218230e-01
      2.17904627e-01 4.40223366e-01 1.82516258e-02 3.70905511e-02
      6.33409247e-02 1.02501512e-01 1.46395579e-01 1.61043957e-01
      1.27329081e-01 2.17758894e-01 2.53258020e-01 3.81243764e-03
      8.98101088e-03 1.57522764e-02 5.16857989e-02 4.78482932e-01
      1.46343634e-01 1.52520716e-01 1.16373539e-01 1.10916480e-01
      1.05080269e-02 2.29017679e-02 3.87681350e-02 5.14756441e-02
      3.60261828e-01 7.24253356e-02 8.74100178e-02 8.95516872e-02
      1.90070763e-01 1.75436586e-02 3.56518328e-02 6.08839728e-02
      9.85255465e-02 1.40717000e-01 1.54797181e-01 1.22390069e-01
      2.09312186e-01 2.43434325e-01 1.43835815e-02 2.50433981e-02
      1.75902583e-02 8.57663574e-04 1.58405006e-01 2.68410239e-02
      6.93070665e-02 3.11118424e-01 4.47821289e-01 1.21781752e-02
      2.65417807e-02 4.49299552e-02 5.96571974e-02 4.17521954e-01
      8.39366466e-02 1.01302989e-01 1.03785060e-01 2.20280662e-01
      1.03100771e-02 5.06145041e-03 0. 0. 1.65889427e-01 0. 0.
      4.70954515e-02 4.41007793e-01 1.66697111e-02 2.90238038e-02
      2.03860588e-02 9.93980910e-04 1.83581948e-01 3.11071444e-02
      8.03227574e-02 3.60567689e-01 5.18998146e-01 3.53578404e-02
      3.22655626e-02 1.24776624e-02 1.25805540e-02 1.79387316e-01
      2.53446642e-02 6.88321143e-02 2.38673370e-02 1.88477427e-01
      1.00751687e-02 4.94612893e-03 0. 0. 1.62109762e-01 0. 0.
      4.60224152e-02 4.30959761e-01 2.13041399e-02 6.10026307e-02
      2.63405424e-02 6.50466010e-02 7.33060539e-02 9.57848057e-02
      1.77680105e-01 2.37211943e-01 4.79229122e-01 3.45522389e-02
      3.15304138e-02 1.21933678e-02 1.22939143e-02 1.75300106e-01
      2.47672033e-02 6.72638267e-02 2.33235378e-02 1.84183106e-01
      5.77032985e-03 2.00181473e-02 6.09436892e-02 1.02679349e-01
      1.78587258e-01 2.02715218e-01 3.43023598e-01 3.30009818e-01
      2.39850670e-01 1.96276885e-02 5.62022552e-02 2.42677703e-02
      5.99280000e-02 6.75375089e-02 8.82473737e-02 1.63698226e-01
      2.18545437e-01 4.41517949e-01 1.83052998e-02 3.71996239e-02
      6.35271892e-02 1.02802940e-01 1.46826088e-01 1.61517546e-01
      1.27703518e-01 2.18399271e-01 2.54002810e-01 5.31625468e-03
      1.84428915e-02 5.61479516e-02 9.45993811e-02 1.64534003e-01
      1.86763287e-01 3.16030622e-01 3.04040909e-01 2.20976517e-01
      5.12088696e-03 3.07853073e-02 1.03290185e-01 1.35303780e-01
      1.96505606e-01 2.29986966e-01 1.96176872e-01 1.51581466e-01
      1.39453441e-01 1.73242837e-02 3.52060236e-02 6.01226501e-02
      9.72935334e-02 1.38957396e-01 1.52861506e-01 1.20859638e-01
      2.06694841e-01 2.40390301e-01 1.42037217e-02 2.47302428e-02
      1.73703004e-02 8.46938929e-04 1.56424239e-01 2.65053902e-02
      6.84404150e-02 3.07228059e-01 4.42221493e-01 4.84644901e-03
      2.91354638e-02 9.77546647e-02 1.28052592e-01 1.85974494e-01
      2.17661530e-01 1.85663387e-01 1.43457919e-01 1.31979868e-01
      1.56839602e-02 7.57476389e-02 2.15150379e-02 1.99516229e-02
      1.85253367e-01 3.09614204e-02 3.25428066e-03 8.92964900e-02
      5.24691820e-01 1.31596131e-02 2.29123365e-02 1.60934180e-02
      7.84680888e-04 1.44925579e-01 2.45569926e-02 6.34093955e-02
      2.84643888e-01 4.09714043e-01 2.79126316e-02 2.54714862e-02
      9.85027384e-03 9.93149914e-03 1.41614184e-01 2.00079028e-02
      5.43383136e-02 1.88416541e-02 1.48790225e-01 1.45310406e-02
      7.01794699e-02 1.99334789e-02 1.84849910e-02 1.71635494e-01
      2.86854617e-02 3.01506021e-03 8.27323571e-02 4.86122012e-01
      9.08058195e-04 8.40060355e-04 0. 8.13205843e-04 2.44255409e-01
      1.76268652e-01 1.56492844e-01 1.86312437e-01 4.97736394e-01
      2.39573084e-02 2.18620803e-02 8.45445227e-03 8.52416828e-03
      1.21546924e-01 1.71727072e-02 4.66383696e-02 1.61717199e-02
      1.27706096e-01 4.00094362e-03 1.38798784e-02 4.22562137e-02
      7.11942539e-02 1.23826131e-01 1.40555605e-01 2.37840503e-01
      2.28817210e-01 1.66304022e-01 7.79382943e-04 7.21020624e-04 0.
      6.97971496e-04 2.09643498e-01 1.51290715e-01 1.34317219e-01
      1.59911275e-01 4.27205265e-01 0. 0. 4.21963818e-03 3.22079249e-02
      6.99819446e-01 4.99534160e-02 0. 0. 0.</_>
    <_>
      4.13102284e-02 1.29033819e-01 5.01212403e-02 5.50400354e-02
      1.73175350e-01 4.00724337e-02 0. 2.54420005e-02 5.24981972e-03
      1.56356953e-03 1.11536514e-02 2.08555534e-02 5.26993088e-02
      1.30451739e-01 7.05086291e-01 1.73415214e-01 8.49797763e-03
      5.72778285e-02 1.81683041e-02 6.45554066e-02 8.14504996e-02
      7.26867542e-02 1.89729437e-01 5.82491867e-02 1.63800642e-01
      1.05565511e-01 3.04191411e-01 1.63308922e-02 4.03725170e-02
      4.83736806e-02 6.90250769e-02 1.30635828e-01 2.84573585e-01
      2.00228721e-01 1.88625887e-01 1.54499412e-01 1.17390836e-03
      8.37402139e-03 1.56580880e-02 3.95659804e-02 9.79415327e-02
      5.29369950e-01 1.30197972e-01 6.38017477e-03 4.30034734e-02
      2.13836832e-03 2.69395619e-04 0. 0. 2.01049015e-01 6.24127805e-01
      1.35565186e-02 4.58837021e-03 2.03930121e-02 1.22610293e-02
      3.03111784e-02 3.63183543e-02 5.18231578e-02 9.80797410e-02
      2.13654280e-01 1.50329217e-01 1.41617954e-01 1.15996219e-01
      1.46921100e-02 3.29416580e-02 4.74213772e-02 4.62437570e-02
      6.37488812e-02 8.96715671e-02 1.23530194e-01 1.65530324e-01
      2.86295801e-01 2.36028340e-03 2.97352904e-04 0. 0. 2.21913427e-01
      6.88898385e-01 1.49633838e-02 5.06454101e-03 2.25093532e-02
      2.43028067e-03 1.57143399e-02 1.46831870e-02 3.71517614e-02
      2.03875080e-01 1.22189827e-01 7.48027936e-02 3.86607647e-01
      1.58422679e-01 1.62168238e-02 3.63602713e-02 5.23426607e-02
      5.10428324e-02 7.03645945e-02 9.89774764e-02 1.36349887e-01
      1.82708696e-01 3.16006929e-01 2.83965226e-02 1.25832140e-01
      2.67142393e-02 1.04128625e-02 1.54384986e-01 6.64567426e-02
      7.69017711e-02 4.13239226e-02 1.00308105e-01 2.61227158e-03
      1.68911051e-02 1.57827325e-02 3.99338603e-02 2.19142213e-01
      1.31339982e-01 8.04043859e-02 4.15558666e-01 1.70286119e-01
      1.61835924e-02 5.75033464e-02 7.25528151e-02 6.47464320e-02
      1.69003323e-01 5.18860258e-02 1.45907000e-01 9.40334946e-02
      2.70961434e-01 3.05229872e-02 1.35255039e-01 2.87147276e-02
      1.11926273e-02 1.65946066e-01 7.14333355e-02 8.26605409e-02
